/*
 * Copyright (c) 2025 EdgeImpulse Inc.
 *
 * Generated by Edge Impulse and licensed under the applicable Edge Impulse
 * Terms of Service. Community and Professional Terms of Service
 * (https://edgeimpulse.com/legal/terms-of-service) or Enterprise Terms of
 * Service (https://edgeimpulse.com/legal/enterprise-terms-of-service),
 * according to your product plan subscription (the “License”).
 *
 * This software, documentation and other associated files (collectively referred
 * to as the “Software”) is a single SDK variation generated by the Edge Impulse
 * platform and requires an active paid Edge Impulse subscription to use this
 * Software for any purpose.
 *
 * You may NOT use this Software unless you have an active Edge Impulse subscription
 * that meets the eligibility requirements for the applicable License, subject to
 * your full and continued compliance with the terms and conditions of the License,
 * including without limitation any usage restrictions under the applicable License.
 *
 * If you do not have an active Edge Impulse product plan subscription, or if use
 * of this Software exceeds the usage limitations of your Edge Impulse product plan
 * subscription, you are not permitted to use this Software and must immediately
 * delete and erase all copies of this Software within your control or possession.
 * Edge Impulse reserves all rights and remedies available to enforce its rights.
 *
 * Unless required by applicable law or agreed to in writing, the Software is
 * distributed on an "AS IS" BASIS, WITHOUT WARRANTIES OR CONDITIONS OF ANY KIND,
 * either express or implied. See the License for the specific language governing
 * permissions, disclaimers and limitations under the License.
 */
// Generated on: 11.12.2025 13:14:45

#include <stdio.h>
#include <stdlib.h>
#include "edge-impulse-sdk/tensorflow/lite/c/builtin_op_data.h"
#include "edge-impulse-sdk/tensorflow/lite/c/common.h"
#include "edge-impulse-sdk/tensorflow/lite/micro/micro_mutable_op_resolver.h"
#include "edge-impulse-sdk/porting/ei_classifier_porting.h"

#if EI_CLASSIFIER_PRINT_STATE
#if defined(__cplusplus) && EI_C_LINKAGE == 1
extern "C" {
    extern void ei_printf(const char *format, ...);
}
#else
extern void ei_printf(const char *format, ...);
#endif
#endif

#define STRINGIZE(x) #x
#define STRINGIZE_VALUE_OF(x) STRINGIZE(x)

#if defined (__GNUC__)  /* GNU compiler */
#define ALIGN(X) __attribute__((aligned(X)))
#define DEFINE_SECTION(x) __attribute__((section(x)))
#elif defined (_MSC_VER)
#define ALIGN(X) __declspec(align(X))
#elif defined (__TASKING__) /* TASKING Compiler */
#define ALIGN(X) __align(X)
#define DEFINE_SECTION(x) __attribute__((section(x)))
#elif defined (__ARMCC_VERSION) /* Arm Compiler */
#define ALIGN(X) __ALIGNED(x)
#define DEFINE_SECTION(x) __attribute__((section(x)))
#elif defined (__ICCARM__) /* IAR Compiler */
#define ALIGN(x) __attribute__((aligned(x)))
#define DEFINE_SECTION(x) __attribute__((section(x)))
#elif defined (__clang__) /* LLVM/Clang Compiler */
#define ALIGN(X) __ALIGNED(x)
#define DEFINE_SECTION(x) __attribute__((section(x)))
#endif

#if defined(EI_MODEL_SECTION) && (defined(__GNUC__) || defined(__clang__))
#define MODEL_SECTION(X) __attribute__((section(STRINGIZE_VALUE_OF(X))))
#else
#define MODEL_SECTION(X)
#endif

#ifndef EI_MAX_SCRATCH_BUFFER_COUNT
#ifndef CONFIG_IDF_TARGET_ESP32S3
#define EI_MAX_SCRATCH_BUFFER_COUNT 14
#else
#define EI_MAX_SCRATCH_BUFFER_COUNT 28
#endif // CONFIG_IDF_TARGET_ESP32S3
#endif // EI_MAX_SCRATCH_BUFFER_COUNT

#ifndef EI_MAX_OVERFLOW_BUFFER_COUNT
#define EI_MAX_OVERFLOW_BUFFER_COUNT 10
#endif // EI_MAX_OVERFLOW_BUFFER_COUNT

using namespace tflite;
using namespace tflite::ops;
using namespace tflite::ops::micro;

namespace {

#if defined(EI_CLASSIFIER_ALLOCATION_STATIC_HIMAX) || defined(EI_CLASSIFIER_ALLOCATION_STATIC_HIMAX_GNU)
constexpr int kTensorArenaSize = 242592;
#else
constexpr int kTensorArenaSize = 241568;
#endif

#if defined(EI_CLASSIFIER_ALLOCATION_STATIC)
#if defined (EI_TENSOR_ARENA_LOCATION)
uint8_t tensor_arena[kTensorArenaSize] ALIGN(16) DEFINE_SECTION(STRINGIZE_VALUE_OF(EI_TENSOR_ARENA_LOCATION));
#else
uint8_t tensor_arena[kTensorArenaSize] ALIGN(16);
#endif
#elif defined(EI_CLASSIFIER_ALLOCATION_STATIC_HIMAX)
#pragma Bss(".tensor_arena")
uint8_t tensor_arena[kTensorArenaSize] ALIGN(16);
#pragma Bss()
#elif defined(EI_CLASSIFIER_ALLOCATION_STATIC_HIMAX_GNU)
uint8_t tensor_arena[kTensorArenaSize] ALIGN(16) __attribute__((section(".tensor_arena")));
#else
#define EI_CLASSIFIER_ALLOCATION_HEAP 1
uint8_t* tensor_arena = NULL;
#endif

static uint8_t* tensor_boundary;
static uint8_t* current_location;

template <int SZ, class T> struct TfArray {
  int sz; T elem[SZ];
};

enum used_operators_e {
  OP_CONV_2D, OP_DEPTHWISE_CONV_2D, OP_PAD, OP_ADD, OP_SOFTMAX,  OP_LAST
};

struct TensorInfo_t { // subset of TfLiteTensor used for initialization from constant memory
  TfLiteAllocationType allocation_type;
  TfLiteType type;
  void* data;
  TfLiteIntArray* dims;
  size_t bytes;
  TfLiteQuantization quantization;
};

typedef struct {
  TfLiteTensor tensor;
  int16_t index;
} TfLiteTensorWithIndex;

typedef struct {
  TfLiteEvalTensor tensor;
  int16_t index;
} TfLiteEvalTensorWithIndex;

TfLiteContext ctx{};
static const int MAX_TFL_TENSOR_COUNT = 4;
static TfLiteTensorWithIndex tflTensors[MAX_TFL_TENSOR_COUNT];
static const int MAX_TFL_EVAL_COUNT = 4;
static TfLiteEvalTensorWithIndex tflEvalTensors[MAX_TFL_EVAL_COUNT];
TfLiteRegistration registrations[OP_LAST];

namespace g0 {
const TfArray<4, int> tensor_dimension0 = { 4, { 1,96,96,1 } };
const TfArray<1, float> quant0_scale = { 1, { 0.0039215688593685627, } };
const TfArray<1, int> quant0_zero = { 1, { -128 } };
const TfLiteAffineQuantization quant0 = { (TfLiteFloatArray*)&quant0_scale, (TfLiteIntArray*)&quant0_zero, 0 };
const MODEL_SECTION(EI_MODEL_SECTION) ALIGN(16) int32_t tensor_data1[4*2] = { 
  0, 0, 
  0, 1, 
  0, 1, 
  0, 0, 
};
const TfArray<2, int> tensor_dimension1 = { 2, { 4,2 } };
const MODEL_SECTION(EI_MODEL_SECTION) ALIGN(8) int32_t tensor_data2[3] = { 25936, -33155, -30072, };
const TfArray<1, int> tensor_dimension2 = { 1, { 3 } };
const TfArray<3, float> quant2_scale = { 3, { 0.00016093548038043082, 0.00014152955554891378, 0.00016044055519159883, } };
const TfArray<3, int> quant2_zero = { 3, { 0,0,0 } };
const TfLiteAffineQuantization quant2 = { (TfLiteFloatArray*)&quant2_scale, (TfLiteIntArray*)&quant2_zero, 0 };
const MODEL_SECTION(EI_MODEL_SECTION) ALIGN(16) int8_t tensor_data3[3*1*1*32] = { 
  /* [0][0][][] */ 53,48,92,-66,-69,18,-29,11,-26,64,40,-14,-20,-73,53,8,-64,97,58,90,-33,-37,22,-72,-127,88,-41,42,98,1,-15,-18, 
  /* [1][0][][] */ 63,-35,-65,22,-11,127,-14,-6,121,-50,-5,-84,-63,107,38,-51,92,-50,-4,-91,-111,22,115,74,26,26,3,-21,-91,-50,-2,-22, 
  /* [2][0][][] */ -21,71,-65,70,73,-35,-24,102,83,36,111,-5,-84,-72,82,104,-70,-54,12,-94,66,106,-39,-78,84,-42,-16,-127,-9,-63,71,-16, 
};
const TfArray<4, int> tensor_dimension3 = { 4, { 3,1,1,32 } };
const TfArray<3, float> quant3_scale = { 3, { 0.0037856479175388813, 0.0033291669096797705, 0.0037740059196949005, } };
const TfLiteAffineQuantization quant3 = { (TfLiteFloatArray*)&quant3_scale, (TfLiteIntArray*)&g0::quant2_zero, 0 };
const MODEL_SECTION(EI_MODEL_SECTION) ALIGN(16) int32_t tensor_data4[32] = { 348, 487, -460, 292, 549, 237, -360, 440, 362, 124, 433, 352, -340, -336, 400, 346, -370, 427, 398, -514, 182, 391, 195, 30, 400, -574, -474, 741, 1341, -429, -217, -459, };
const TfArray<1, int> tensor_dimension4 = { 1, { 32 } };
const TfArray<32, float> quant4_scale = { 32, { 4.3987252865917981e-05, 4.2622650653356686e-05, 4.165194695815444e-05, 4.5872195187257603e-05, 4.1249069909099489e-05, 4.2295214370824397e-05, 4.1839142795652151e-05, 4.2114421376027167e-05, 4.3414729589130729e-05, 4.3143678340129554e-05, 4.3469470256241038e-05, 4.5166769268689677e-05, 4.2484498408157378e-05, 4.3651452870108187e-05, 4.7423298383364454e-05, 4.5457822125172243e-05, 4.3737090891227126e-05, 4.6506294893333688e-05, 4.6067143557593226e-05, 4.2287174437660724e-05, 4.4482916564447805e-05, 4.3049585656262934e-05, 4.2816878703888506e-05, 4.6081684558885172e-05, 4.4982614781474695e-05, 4.3584717786870897e-05, 4.3548621761146933e-05, 4.6299202949739993e-05, 4.9810867494670674e-05, 4.2120245780097321e-05, 4.1335941205034032e-05, 4.2902844143100083e-05, } };
const TfArray<32, int> quant4_zero = { 32, { 0,0,0,0,0,0,0,0,0,0,0,0,0,0,0,0,0,0,0,0,0,0,0,0,0,0,0,0,0,0,0,0 } };
const TfLiteAffineQuantization quant4 = { (TfLiteFloatArray*)&quant4_scale, (TfLiteIntArray*)&quant4_zero, 0 };
const MODEL_SECTION(EI_MODEL_SECTION) ALIGN(16) int8_t tensor_data5[32*1*1*96] = { 
  /* [0][0][][] */ -35,-48,107,17,97,-10,-89,-90,75,-95,-100,1,62,20,-26,60,-45,-22,-58,-46,-55,-91,10,112,-100,16,85,-42,112,2,-18,-73,80,-53,-84,71,-102,-70,-78,35,71,-87,-87,105,54,-99,117,-6,22,-66,-24,97,-68,-71,-86,106,32,73,127,-100,-68,84,-36,47,1,21,77,99,64,104,97,-106,107,-92,47,89,-102,21,-49,38,60,-1,102,-3,-57,-57,-76,107,31,119,1,-105,9,78,28,24, 
  /* [1][0][][] */ -56,44,-67,-11,-30,78,49,15,54,-99,-95,116,72,-42,32,71,87,-36,29,125,-48,-7,44,28,17,23,-46,118,10,16,107,-62,73,113,-2,41,63,44,-16,-59,-60,7,-33,-87,-29,29,-45,-69,-23,-79,122,49,20,98,-74,-40,13,108,54,92,-49,127,-59,-69,-56,42,84,50,109,13,-2,18,-111,80,-38,52,93,-72,-35,79,-76,98,-65,-127,25,125,-73,-69,89,87,79,31,92,71,39,-9, 
  /* [2][0][][] */ 43,26,-73,86,-33,-70,80,86,-117,83,-49,109,81,-19,73,-126,-70,-39,38,43,-114,-24,103,10,-30,74,96,-3,-80,69,75,87,-83,-32,-108,-121,-102,92,99,-40,-127,-83,2,-18,-98,111,-32,-90,92,37,82,-101,-60,53,14,8,-71,86,-75,-7,-31,49,-47,62,84,35,39,79,-109,57,-3,-87,23,-79,21,18,-68,-38,-8,-3,27,-103,-22,-53,-5,-111,-29,-46,81,107,-34,-5,-55,-100,-60,-74, 
  /* [3][0][][] */ 60,13,38,-22,-57,44,-96,48,54,16,71,-1,98,78,80,13,92,103,-71,26,119,-88,-50,-100,-36,-104,-66,113,38,-80,77,11,-41,-26,-5,-4,-71,-40,43,56,-29,-99,-79,14,77,21,-56,-78,71,-88,49,-12,98,41,83,-94,-127,-99,-110,-47,-77,45,-26,74,60,-23,-47,-22,-23,-64,9,106,30,-127,65,-45,41,93,104,-43,-75,-120,44,65,13,47,-50,-100,-67,52,-7,-94,82,-90,-76,20, 
  /* [4][0][][] */ 38,120,13,61,-14,-33,48,31,61,82,7,70,42,-61,0,-59,-48,5,-96,31,121,-101,103,41,-56,-7,76,-47,-52,53,-69,-54,88,127,29,-92,-33,-39,-110,63,-62,-70,-64,-77,47,90,3,55,27,-54,-7,-80,-75,64,-89,31,3,-84,32,28,24,-61,-36,-55,-40,68,14,-28,33,-126,-103,-72,-43,-16,122,65,78,-25,6,-40,21,-43,-114,-42,-16,78,87,15,-108,-54,38,60,32,90,-90,-21, 
  /* [5][0][][] */ 95,-92,84,91,45,-112,25,63,124,-118,-2,-67,31,107,45,42,71,70,-72,107,43,58,22,-20,-96,-60,-7,-88,52,34,17,-95,-37,8,-64,24,-109,-32,56,30,-100,-62,49,105,-27,30,45,-42,-100,81,32,34,43,-6,40,-21,107,57,-46,-37,39,-63,46,-75,-24,108,-20,35,84,11,118,-66,-40,81,-23,-69,14,-39,20,92,115,19,39,109,-88,79,0,44,66,-98,127,98,-24,36,68,-84, 
  /* [6][0][][] */ 14,-49,110,72,-91,-69,-7,62,-21,-88,1,-96,83,53,113,-126,37,-3,-5,99,-85,-126,106,55,-62,-88,-13,-63,-32,-120,44,-83,-99,-127,-51,-112,-15,36,-116,78,83,55,18,-21,-119,104,-95,-51,-88,15,-31,-66,55,-58,92,-32,6,-12,-74,111,-103,-4,66,-78,-56,64,98,-54,76,-11,-114,-10,52,-76,-97,-48,-86,-110,-63,-35,29,-31,39,-33,-77,-90,-46,-103,81,93,93,12,-58,-73,73,-33, 
  /* [7][0][][] */ 116,82,-30,-40,-63,117,-10,9,111,7,-89,27,67,-103,57,82,39,25,-34,127,63,38,5,97,-102,109,49,69,-77,120,-15,42,38,33,78,113,-95,68,-6,-19,97,-82,93,82,61,-11,72,-125,59,-57,-105,-78,-16,101,22,40,100,-82,5,-49,19,5,89,-105,-64,-48,78,32,-104,4,64,97,96,-8,73,67,-55,46,-91,60,103,-31,-24,-84,81,40,-112,101,93,15,81,76,-51,-54,8,-73, 
  /* [8][0][][] */ 9,43,-37,-81,67,29,-66,-11,16,38,52,102,13,-45,-73,-65,-62,104,-68,28,41,-20,90,118,-120,97,55,85,-63,30,-87,121,103,-24,56,6,127,1,-11,79,76,93,-99,-106,-2,-24,-17,115,27,-102,-55,-7,-55,2,-25,-100,33,116,-87,111,122,53,50,113,-24,-37,-12,107,-75,61,43,8,85,63,19,27,-37,113,94,85,44,77,-99,-91,18,44,76,-33,44,-31,-80,109,-78,-92,-38,57, 
  /* [9][0][][] */ 24,-5,117,45,92,-89,-36,-123,25,58,3,62,-26,-73,-105,-20,7,-6,-95,-74,-7,102,-111,-102,119,-2,-18,24,-1,-61,-73,117,69,12,29,-20,-84,14,-40,-40,63,-59,50,-95,81,34,-105,51,52,7,-83,-50,79,-71,-63,116,89,-58,-19,13,-93,112,77,-64,-89,16,101,54,-44,95,103,-91,5,79,-107,-89,-71,-127,-53,97,33,48,95,37,-25,-83,48,-27,99,28,-31,114,125,-6,70,-33, 
  /* [10][0][][] */ -65,92,100,-62,-7,104,116,37,32,33,33,-57,108,71,-24,18,-47,88,-123,-52,-11,32,66,-61,1,59,-108,-102,-46,89,-89,-76,97,107,127,83,-29,-10,-29,43,-36,110,-102,-26,-88,-62,-38,-65,2,0,44,2,71,33,-58,-26,-117,-6,31,-36,8,89,118,50,122,-67,-87,-14,28,-31,-92,-57,94,39,-71,113,-6,58,76,34,86,5,59,93,-107,73,99,-19,45,18,-9,-59,-47,-56,-35,-71, 
  /* [11][0][][] */ 117,12,-12,102,114,46,54,29,127,93,-56,109,-2,-65,30,-53,-49,-95,71,40,33,83,35,-106,-33,-84,-18,66,85,-9,34,-14,-78,-62,58,47,-63,83,-28,-59,-14,105,-71,1,-40,-24,-73,-73,84,118,106,50,-87,-78,23,35,-56,-54,-23,-74,-76,82,87,14,30,84,-51,32,86,54,-64,-68,40,111,-95,54,-62,34,-42,93,-99,-11,-67,-26,59,-27,30,-23,-64,5,20,-97,-79,-30,-49,-17, 
  /* [12][0][][] */ 15,61,-63,-7,80,3,-44,26,-81,58,-23,6,-54,17,40,-86,-106,-42,-43,-92,18,-9,9,89,-63,-54,92,-109,89,4,-42,111,-97,-78,-55,9,-13,-79,-25,34,116,39,-121,-50,-30,-87,-41,114,-53,-115,-86,107,28,-8,-89,79,-5,-69,48,60,49,105,-6,47,105,25,-54,111,50,94,37,63,76,114,-26,-12,-45,26,-127,-103,-67,103,39,14,-33,27,51,107,-102,-117,92,34,99,-16,20,73, 
  /* [13][0][][] */ 100,-65,105,102,90,117,67,67,96,-111,0,-28,97,74,74,-43,-103,-62,-70,37,82,-24,118,-36,-57,34,18,21,-86,-93,73,37,31,103,-16,36,-74,-25,32,74,-76,55,-43,12,-36,34,8,-17,44,75,-30,-101,-100,14,101,-85,-50,34,-12,-76,-23,114,-77,-3,-44,-59,-87,85,-27,0,111,-3,-79,40,-78,-40,-103,83,88,-51,58,-117,106,19,-92,-113,96,127,-23,-55,-66,60,100,-39,52,-9, 
  /* [14][0][][] */ -49,-79,88,70,80,-22,-4,-94,-72,-28,72,83,-18,-73,-72,-70,-48,-46,-2,32,-33,40,7,63,-127,-58,-22,38,-98,-96,-66,42,106,-12,-21,15,98,102,38,-93,-3,-104,38,92,70,-98,60,-74,109,36,77,44,97,-2,-8,22,-55,17,49,97,-5,-64,-14,74,-76,-3,80,-88,-72,-78,-75,94,13,67,56,-59,60,-98,59,42,50,-15,-97,-40,-104,-76,-98,101,108,15,85,-40,82,97,-6,55, 
  /* [15][0][][] */ 10,-13,-24,61,98,-93,70,-80,34,1,-55,22,110,-21,-77,-98,63,19,-107,33,45,13,80,109,53,69,37,100,19,67,67,-93,18,14,-49,4,-50,81,103,-54,18,102,-51,-9,30,-85,-58,-94,-4,-71,1,18,-81,-82,-44,4,44,60,-49,115,-29,-49,9,110,-32,100,-59,11,-58,-7,39,-58,25,-34,69,-96,10,32,111,84,-69,65,-114,-65,-121,-30,-88,39,91,71,-127,-29,60,86,-87,96, 
  /* [16][0][][] */ -73,-6,106,-50,37,117,-63,42,73,42,-115,69,-6,-38,-44,-56,120,81,73,71,123,83,-40,61,-21,53,-54,61,-95,7,35,14,-113,75,59,57,-31,61,-40,-64,14,-53,82,84,65,108,112,0,-49,-127,11,118,-43,100,69,39,31,91,77,8,111,101,33,48,63,15,-32,90,54,111,-14,-12,39,96,55,87,-14,114,-105,-7,20,-101,70,15,8,91,107,18,70,13,-3,116,59,-15,-94,25, 
  /* [17][0][][] */ 57,-107,37,79,-36,-86,-54,-91,26,-68,90,50,92,82,-107,60,34,43,116,106,-88,8,17,-52,42,75,-76,22,114,-48,-9,80,-26,-13,34,15,-51,111,-73,-32,-54,5,-19,-16,5,28,89,-88,75,127,-1,65,-11,87,100,-59,-79,77,-70,-91,24,-90,71,103,-70,-69,44,-84,-95,-7,104,29,15,-89,-58,73,108,-48,33,-52,13,16,-72,-70,-68,86,88,-30,35,90,-74,-112,-5,90,18,36, 
  /* [18][0][][] */ -81,83,110,-52,-11,-112,-92,10,-27,82,-103,-35,-42,57,56,-59,4,-33,79,-22,89,-27,15,-92,37,-78,-24,94,34,35,6,37,44,-31,-102,-87,-28,54,-15,50,-42,6,-60,-8,-105,10,41,5,2,7,74,26,-97,-2,17,94,-33,25,-13,-127,78,106,22,46,-61,-119,-20,81,66,-90,-81,102,-99,-18,-79,-92,43,26,-8,-72,-52,11,-16,-56,101,-26,71,56,-92,-52,-37,88,97,-47,57,4, 
  /* [19][0][][] */ 15,20,68,32,51,-88,88,85,83,-68,21,-19,-104,28,-63,55,68,-112,108,50,-31,74,-64,6,80,-87,23,-77,-99,-127,-70,42,72,-90,25,-9,0,-76,-63,-108,38,-121,-90,3,-94,25,71,-102,-32,34,-46,44,-43,6,1,-17,21,92,-8,-33,47,-63,93,55,-76,-10,-33,-8,-15,48,67,-59,-70,-126,-64,-89,-31,-121,6,98,51,-119,-37,71,-92,-15,1,-12,81,22,-12,57,-39,108,63,-56, 
  /* [20][0][][] */ -7,81,65,85,-74,83,32,54,5,16,-69,7,-8,76,37,-69,-60,-30,-65,-31,18,-49,-66,-70,64,-69,-106,51,19,25,-34,105,110,44,-14,54,44,-38,-22,-103,-77,-31,-90,-88,-23,-63,-75,93,61,-98,-99,31,52,127,53,2,80,72,88,91,116,-43,-59,-20,-32,-60,-50,15,-88,-81,-75,82,-65,-87,38,19,115,65,109,104,80,24,73,-24,57,126,-18,71,27,93,20,62,33,19,11,2, 
  /* [21][0][][] */ 84,85,78,-100,105,-87,82,25,-2,-67,-64,51,14,25,-41,-85,-115,-22,10,-4,115,-46,80,-75,29,-84,-25,83,14,14,-11,-20,18,27,-83,-104,122,77,-114,-25,-14,-9,37,-3,-90,-91,-91,90,-19,-81,-2,71,43,80,-97,32,-76,61,-51,127,65,-64,19,-7,85,38,-28,-62,-99,-2,63,85,41,-46,82,70,-103,-30,73,117,21,94,40,-90,12,-94,60,-78,-97,83,101,-105,-43,-67,74,-45, 
  /* [22][0][][] */ 38,-62,-65,-86,93,-48,104,58,-78,87,-77,-105,124,-91,-103,-80,52,93,-92,-53,103,-59,32,40,108,3,-103,104,-50,-81,-63,-101,48,70,26,23,6,-2,-48,-108,3,-19,11,100,64,-104,113,-2,-53,-97,14,-15,-65,-111,-38,39,-5,-23,-12,-24,115,-70,-72,-124,-55,25,-104,-36,127,118,-5,1,-57,17,66,-85,49,-41,69,100,116,-113,-56,-124,78,80,110,-29,-71,29,-46,69,20,39,-41,111, 
  /* [23][0][][] */ 47,-90,12,60,89,-101,-6,-90,76,-78,71,68,24,-93,26,-41,98,-28,-101,101,99,-72,96,-23,-7,-11,88,20,64,44,55,-35,-35,43,21,37,99,-1,-96,12,-110,-10,15,-100,-52,-82,115,34,77,-127,-79,-39,73,-61,-46,79,-75,-16,99,31,-100,-79,-48,-22,37,39,-105,-100,68,-3,118,-66,4,-31,-37,-83,45,-3,91,117,-44,-73,29,-100,78,7,109,-9,-89,39,106,-1,83,-38,-38,79, 
  /* [24][0][][] */ -84,-34,-91,-62,-71,-109,-55,-78,70,110,90,55,122,44,-27,-105,-81,52,1,-38,103,-76,-42,-24,24,-27,81,68,100,65,2,-56,13,17,58,38,-36,-105,61,-9,-76,-107,111,18,31,-41,29,66,-78,-57,-14,9,78,71,68,-63,-22,86,26,12,101,7,40,99,-88,102,-36,-77,-92,58,-49,-14,-26,10,104,103,72,-65,-86,-62,-65,-93,-56,-127,-10,67,-17,-84,36,-93,-1,-64,-16,27,-81,18, 
  /* [25][0][][] */ -91,-70,-94,-22,77,-81,-115,41,37,-122,-52,6,57,-11,-122,-33,-68,49,41,-122,52,73,-24,-71,25,-64,-114,24,62,-104,28,104,76,-121,29,56,81,-67,-34,-29,-94,83,-113,-10,84,45,72,32,-112,82,-83,-11,29,-36,-72,-2,-28,39,-118,62,103,28,37,32,-12,61,-30,-20,-102,-6,-38,-126,20,-113,57,7,56,63,2,3,35,38,-47,71,-84,-65,-114,-105,-40,-57,88,9,-127,-23,-33,-98, 
  /* [26][0][][] */ 37,-121,-27,-20,-102,-8,-16,-17,-98,-127,99,81,-82,-70,6,-22,109,25,-111,-71,5,51,91,11,23,53,8,41,-1,1,-101,-7,-33,-66,-103,-107,-67,64,-57,104,-106,88,51,28,-72,51,-61,84,-25,15,-11,98,5,-50,-12,-111,81,59,44,19,-2,-96,52,-28,106,-24,-60,50,-91,81,72,90,75,-123,-91,-1,41,-95,-101,3,-34,61,69,-88,67,-18,-56,12,-90,101,-10,14,-61,111,44,67, 
  /* [27][0][][] */ 41,14,-31,-68,-85,-27,-39,-14,44,117,37,-70,-11,89,88,-2,106,4,100,-66,-82,35,-18,-3,-33,70,-82,11,99,42,11,25,74,89,-63,-64,-76,-8,-82,100,-55,63,24,16,122,49,97,118,125,89,74,-31,-67,-41,17,-1,127,-11,-72,-67,-49,-34,-14,85,67,-21,-84,123,72,25,-95,16,73,1,-8,-54,68,-24,77,96,89,15,124,5,-15,-28,5,40,-36,8,0,-32,71,40,92,88, 
  /* [28][0][][] */ 114,9,107,66,-76,-15,-54,-39,-35,-57,74,92,-52,-41,22,121,105,104,-26,67,-17,47,-78,-59,-70,101,-60,-33,-21,-45,38,21,-73,41,93,91,-2,-54,-10,39,127,75,-79,40,-75,20,35,63,40,-10,-34,11,-47,48,71,73,92,1,80,73,0,-19,-60,39,75,84,24,103,-38,25,-80,-22,73,71,13,-56,-77,-57,-73,49,-46,-30,95,-4,96,-59,78,-48,-67,-22,4,-43,2,67,-44,-26, 
  /* [29][0][][] */ 55,46,50,-58,-96,11,-127,0,98,-20,-98,-102,101,-98,-57,-51,-104,97,37,-74,-83,-38,48,-2,-18,2,-50,-36,-107,-15,101,-8,43,-5,-88,-65,-20,109,-14,89,45,112,-52,75,-7,107,-52,-24,13,-4,53,-94,66,-110,109,42,-92,50,-53,103,-126,90,-98,-58,-67,-71,46,84,91,-92,31,-80,106,87,54,20,109,-69,-39,24,-13,-86,-13,-79,71,117,43,74,-44,95,74,75,-109,14,-9,66, 
  /* [30][0][][] */ 15,-67,-65,35,-102,14,-67,-15,114,-26,-2,-46,-109,6,52,7,-8,31,87,-106,36,-114,-115,14,-116,14,-74,122,-23,-113,-98,-6,-90,-85,-127,-64,18,-19,-7,26,93,-82,-13,103,103,-52,104,63,-73,64,14,-109,99,-57,-23,99,-89,-60,-83,-62,-112,-7,-79,-31,-113,-99,-101,87,-70,114,43,-37,-94,109,38,-90,-64,-73,-77,-63,29,14,-110,-23,-117,24,-120,112,-40,-121,76,55,-47,-9,7,-78, 
  /* [31][0][][] */ 79,-101,30,95,44,58,-66,-105,-37,-24,-86,-93,93,-126,-55,106,-66,-97,35,42,56,34,-38,100,41,-120,31,33,-78,-81,43,104,11,15,-99,-15,89,-34,-75,-117,56,-73,-36,25,-2,-59,-44,20,65,23,87,-33,-122,-66,-85,19,-119,62,-1,109,-46,-9,80,-81,64,106,-52,-85,67,-126,-127,4,-104,-43,-4,0,-66,-54,42,82,-83,-46,51,71,55,89,-100,10,10,-61,-92,-61,7,97,-11,-29, 
};
const TfArray<4, int> tensor_dimension5 = { 4, { 32,1,1,96 } };
const TfArray<32, float> quant5_scale = { 32, { 0.0018694582395255566, 0.001811462570913136, 0.0017702077748253942, 0.0019495682790875435, 0.0017530854092910886, 0.0017975466325879097, 0.0017781635979190469, 0.0017898628721013665, 0.0018451260402798653, 0.0018336062785238028, 0.0018474524840712547, 0.0019195877248421311, 0.0018055911641567945, 0.0018551867688074708, 0.0020154900848865509, 0.0019319574348628521, 0.0018588262610137463, 0.0019765174947679043, 0.0019578535575419664, 0.0017972048372030258, 0.0018905239412561059, 0.0018296074122190475, 0.0018197173485532403, 0.0019584714900702238, 0.0019117611227557063, 0.0018523505423218012, 0.0018508164212107658, 0.0019677160307765007, 0.0021169618703424931, 0.0017901103710755706, 0.0017567775212228298, 0.001823370810598135, } };
const TfLiteAffineQuantization quant5 = { (TfLiteFloatArray*)&quant5_scale, (TfLiteIntArray*)&g0::quant4_zero, 0 };
const MODEL_SECTION(EI_MODEL_SECTION) ALIGN(16) int32_t tensor_data6[96] = { 1470, -1, 3043, 4981, 3817, -2151, 3265, -1270, -1898, -566, 4529, -1599, 3891, 6720, 1812, 1867, -546, -348, -2107, 6093, 2162, -691, 2537, -491, -1017, 2841, 1463, 2183, 4554, 1972, 3955, 1193, 1336, 4699, 4998, 3545, -393, 4262, 2276, -4151, -208, 1438, 13, 2192, -1386, 390, -1106, 762, -6562, 1800, 1118, -2946, 6593, -745, 2043, 1226, 1135, 3009, -697, -2007, 319, 1574, 324, 3878, 5056, 3633, 2624, 4560, 3542, -773, 2637, 5428, 2998, -1759, 4695, 6131, 840, -3436, 761, 1266, 9799, 2146, -495, -2247, 1133, 704, 1171, -2150, 4202, -544, 3544, 972, -7, -3413, -287, 1588, };
const TfArray<1, int> tensor_dimension6 = { 1, { 96 } };
const TfArray<96, float> quant6_scale = { 96, { 0.00013332112575881183, 0.0002379154902882874, 0.00019136365153826773, 0.00014875424676574767, 0.00016340271395165473, 0.0001821327896323055, 0.00018228290718980134, 0.00020853732712566853, 0.00019979737407993525, 0.0002566580951679498, 0.00014586413453798741, 0.00026696885470300913, 0.0001469098060624674, 8.6661573732271791e-05, 0.00015601821360178292, 0.00022358383284881711, 0.00023076859361026436, 0.0001945427356986329, 0.00013661659613717347, 0.00010375328565714881, 0.00020467037393245846, 0.00017828865384217352, 0.00014456352801062167, 0.00017677988216746598, 0.00023931304167490453, 0.00022228239686228335, 0.00017775468586478382, 0.00016775350377429277, 0.00015753634215798229, 0.00022297346731647849, 0.00012728261935990304, 0.0001893230655696243, 0.00023549947945866734, 0.00013774902618024498, 0.00013246468733996153, 0.00014208319771569222, 0.00016812258400022984, 0.00010522937373025343, 0.00015838815306778997, 0.00012914657418150455, 0.00019522603543009609, 0.00016943155787885189, 0.00018679341883398592, 0.00011366677790647373, 0.00015207426622509956, 0.00015942391473799944, 0.00020611431682482362, 0.00020518559904303402, 0.00010781927267089486, 0.00014743521751370281, 0.00020495110948104411, 0.00016563587996643037, 0.00011306257511023432, 0.00020858329662587494, 0.00016088459233287722, 0.00018269947031512856, 0.00017932573973666877, 0.00013319484423846006, 0.00022293682559393346, 0.00014705841022077948, 0.00022823139443062246, 0.00014989756164140999, 0.00028366767219267786, 0.00017215296975336969, 0.00013021125050727278, 0.00012431683717295527, 0.00014977162936702371, 0.00015344673010986298, 0.00018261921650264412, 0.00016520429926458746, 0.0001825956569518894, 0.00013155776832718402, 0.0001612088963156566, 0.0001341514871455729, 0.00015602943312842399, 0.00013298800331540406, 0.00013708428014069796, 0.00017056761134881526, 0.00016382010653614998, 0.0001729968935251236, 8.8426655565854162e-05, 0.00014304292562883347, 0.00017372982983943075, 0.00018911654478870332, 0.00017629005014896393, 0.00018582996563054621, 0.00023664516629651189, 0.00019222295668441802, 0.00015519301814492792, 0.00016876206791494042, 0.00016724536544643342, 0.00020311753905843943, 0.00017980698612518609, 0.00013082395889796317, 0.00023051793687045574, 0.00016786488413345069, } };
const TfArray<96, int> quant6_zero = { 96, { 0,0,0,0,0,0,0,0,0,0,0,0,0,0,0,0,0,0,0,0,0,0,0,0,0,0,0,0,0,0,0,0,0,0,0,0,0,0,0,0,0,0,0,0,0,0,0,0,0,0,0,0,0,0,0,0,0,0,0,0,0,0,0,0,0,0,0,0,0,0,0,0,0,0,0,0,0,0,0,0,0,0,0,0,0,0,0,0,0,0,0,0,0,0,0,0 } };
const TfLiteAffineQuantization quant6 = { (TfLiteFloatArray*)&quant6_scale, (TfLiteIntArray*)&quant6_zero, 0 };
const MODEL_SECTION(EI_MODEL_SECTION) ALIGN(16) int8_t tensor_data7[96*1*1*16] = { 
  /* [0][0][][] */ -15,93,-78,26,50,-35,104,61,-53,10,36,-88,73,127,-70,24, 
  /* [1][0][][] */ -27,-2,-58,-31,-16,46,26,-127,29,-54,-31,-53,-17,-53,-51,-1, 
  /* [2][0][][] */ -30,-33,36,72,21,40,-106,127,-23,5,83,-54,-25,-67,-52,75, 
  /* [3][0][][] */ 101,-91,82,0,2,-29,-40,127,-25,66,66,46,1,66,18,4, 
  /* [4][0][][] */ -43,-26,-9,40,-83,10,-28,-127,2,-3,42,-7,29,62,107,122, 
  /* [5][0][][] */ 125,27,-22,-27,-86,23,28,78,20,-12,61,98,127,24,-85,6, 
  /* [6][0][][] */ 10,-35,-52,-56,-78,11,3,-38,-51,-57,-36,34,80,44,127,-7, 
  /* [7][0][][] */ -52,37,-26,-73,8,-56,-82,18,-93,60,-75,-70,-127,-33,14,86, 
  /* [8][0][][] */ 45,36,70,4,48,18,72,4,62,-29,40,10,-127,-29,-78,15, 
  /* [9][0][][] */ -38,64,30,-40,-30,-11,29,-11,-36,47,-43,12,48,127,29,26, 
  /* [10][0][][] */ 66,44,-47,44,-36,-21,58,-52,-77,-42,-51,-94,-127,-85,6,100, 
  /* [11][0][][] */ 44,3,67,7,-16,-23,14,108,-90,20,-38,6,-9,-10,78,127, 
  /* [12][0][][] */ -56,-27,11,-7,15,-3,127,38,-55,18,-4,-4,-21,72,-35,105, 
  /* [13][0][][] */ 7,50,35,55,111,61,127,123,-50,127,-109,-60,43,91,-116,-42, 
  /* [14][0][][] */ -109,127,8,-6,3,12,56,6,-37,38,114,-15,-86,33,-47,41, 
  /* [15][0][][] */ -9,-14,-127,-40,81,-39,-90,-32,-23,-17,-19,-71,0,-79,-48,45, 
  /* [16][0][][] */ 100,-22,9,-17,22,-33,47,-22,-36,3,127,53,40,-2,-41,24, 
  /* [17][0][][] */ 6,11,-25,-106,-16,-69,127,-126,0,-26,-45,40,31,69,3,56, 
  /* [18][0][][] */ 32,127,-18,-45,63,-70,-27,-56,-46,125,-23,-9,-23,57,-3,-32, 
  /* [19][0][][] */ -78,-127,119,-105,39,-120,38,-32,43,36,94,115,17,-17,66,-28, 
  /* [20][0][][] */ -21,80,51,-3,6,-1,25,-29,53,-12,93,-18,-127,-29,-75,-3, 
  /* [21][0][][] */ -58,45,13,27,72,37,62,51,-127,61,-40,8,-15,28,-56,-32, 
  /* [22][0][][] */ 9,-93,54,4,16,-127,116,9,14,-53,-39,-66,33,-82,-61,-48, 
  /* [23][0][][] */ -65,-105,48,60,23,-22,25,-41,16,-43,77,12,2,67,75,127, 
  /* [24][0][][] */ 1,-1,23,88,51,22,-59,-127,64,12,-43,14,4,-3,-19,-31, 
  /* [25][0][][] */ -18,27,22,-55,-33,-10,15,-29,-33,51,-40,-5,35,127,26,13, 
  /* [26][0][][] */ -66,84,10,21,36,-87,-5,-36,21,27,9,75,6,3,-88,127, 
  /* [27][0][][] */ -25,-127,-43,1,-64,86,6,-55,12,-41,54,-23,23,-51,-96,-15, 
  /* [28][0][][] */ -31,5,41,85,29,16,-43,-127,-117,50,99,-16,71,13,-36,-30, 
  /* [29][0][][] */ -127,100,-19,-34,-32,24,-114,-65,-44,-39,-12,3,2,-65,-99,58, 
  /* [30][0][][] */ 60,80,-47,80,-99,-86,-78,-19,-32,1,-1,-117,127,37,-6,83, 
  /* [31][0][][] */ 127,33,-61,-26,-59,24,92,40,-54,-11,59,43,48,27,-21,3, 
  /* [32][0][][] */ -40,-26,127,-6,-29,71,82,14,-16,-19,-13,29,3,63,69,46, 
  /* [33][0][][] */ -12,15,-59,-60,-31,23,127,25,-10,-22,34,-52,84,109,-46,60, 
  /* [34][0][][] */ -103,-31,91,12,20,-59,111,-13,-127,30,41,-36,40,50,-49,-27, 
  /* [35][0][][] */ -9,14,-60,7,-87,127,-30,-14,-25,126,8,106,-85,69,16,43, 
  /* [36][0][][] */ -17,-78,127,-56,-59,23,-39,-8,10,17,-51,89,0,-90,-35,51, 
  /* [37][0][][] */ 87,-7,76,-36,117,-79,-48,34,-74,127,-77,-1,-99,-52,125,-26, 
  /* [38][0][][] */ 53,50,6,-98,-7,-43,-104,52,-78,48,-107,-59,-63,-127,-93,52, 
  /* [39][0][][] */ -74,16,-56,-33,-76,-84,67,15,-127,-32,26,86,35,2,-9,58, 
  /* [40][0][][] */ 127,32,1,-97,-83,20,16,-30,-50,-33,-42,-79,12,54,47,45, 
  /* [41][0][][] */ 86,-83,-61,-51,-7,-11,-52,-21,54,-27,7,-51,127,-74,56,-27, 
  /* [42][0][][] */ -19,-99,-36,127,1,-105,-111,23,7,6,16,68,-81,76,-71,6, 
  /* [43][0][][] */ -86,-54,-48,-127,-53,-5,-5,80,47,-121,-31,39,-22,-48,-38,106, 
  /* [44][0][][] */ -52,36,39,-55,-34,-34,43,126,119,-95,94,127,125,49,-30,12, 
  /* [45][0][][] */ 35,78,-68,90,127,-79,-41,-69,114,-63,63,-69,-18,4,-72,57, 
  /* [46][0][][] */ -29,-44,19,-20,89,-29,33,15,0,127,-26,-113,21,57,-59,77, 
  /* [47][0][][] */ 74,-47,-30,-15,76,-19,-36,-59,-2,127,-21,42,-12,-97,-87,19, 
  /* [48][0][][] */ 7,27,-9,-127,-7,-54,114,-120,2,5,-44,42,48,58,9,32, 
  /* [49][0][][] */ -17,127,-59,38,53,-47,62,49,-21,29,31,-94,-21,63,112,-99, 
  /* [50][0][][] */ 16,45,-19,6,-127,3,-72,-56,57,74,27,27,-32,-38,5,32, 
  /* [51][0][][] */ 127,-40,-50,-17,-50,90,-92,-37,42,-21,-40,71,-30,-68,6,43, 
  /* [52][0][][] */ -30,-54,44,65,-58,-100,-127,-13,-49,-73,-46,-70,9,-79,20,79, 
  /* [53][0][][] */ 19,91,62,-127,0,102,92,-12,-12,-28,-10,-31,75,-119,15,57, 
  /* [54][0][][] */ 38,125,10,-20,1,-101,-112,47,10,-20,-40,127,79,97,15,61, 
  /* [55][0][][] */ -32,-7,51,33,54,-27,95,88,-77,-1,14,3,127,56,-6,-7, 
  /* [56][0][][] */ 127,20,10,24,-54,111,-57,-74,-30,44,-82,10,-65,110,-6,42, 
  /* [57][0][][] */ -59,-45,-43,-47,-69,-109,69,-24,-127,-23,59,69,6,35,-13,57, 
  /* [58][0][][] */ 49,-52,58,24,7,-56,-18,9,28,-22,-127,-30,24,-38,-31,43, 
  /* [59][0][][] */ 73,12,-127,96,7,32,89,-29,-82,-55,23,-107,-126,-64,37,105, 
  /* [60][0][][] */ -7,25,-11,14,-20,-28,-18,9,-39,-76,63,127,-49,-122,-37,-2, 
  /* [61][0][][] */ -23,20,79,-86,-65,58,-4,127,-24,-94,65,62,98,5,7,119, 
  /* [62][0][][] */ 70,38,-9,-127,-20,0,10,-39,-7,29,-36,49,19,-25,-87,-71, 
  /* [63][0][][] */ -6,-34,0,-10,-73,-76,-55,7,-80,-17,-35,-14,127,-2,53,-10, 
  /* [64][0][][] */ 35,9,-11,62,-98,-36,-29,-86,63,127,30,-8,47,-44,-33,101, 
  /* [65][0][][] */ -28,7,-18,-14,-75,79,24,-27,52,-113,95,-66,68,69,-127,58, 
  /* [66][0][][] */ -121,110,-113,-79,48,-30,-127,-69,-115,127,87,-9,-113,-68,57,50, 
  /* [67][0][][] */ 7,-29,-127,-108,71,78,6,-28,-24,-1,50,-24,33,44,13,46, 
  /* [68][0][][] */ 60,26,-7,-39,-58,38,11,36,-55,72,127,-21,-6,-35,-117,-5, 
  /* [69][0][][] */ 74,-117,62,-57,17,-117,-27,127,0,63,95,91,-27,71,-35,3, 
  /* [70][0][][] */ 49,0,127,29,89,-27,117,10,30,28,-56,48,-78,69,-84,46, 
  /* [71][0][][] */ 2,26,88,-74,-127,-70,18,9,-28,-16,14,-93,-76,-3,15,33, 
  /* [72][0][][] */ -64,-97,25,-121,70,-10,12,43,-73,12,-127,-16,52,111,-51,110, 
  /* [73][0][][] */ 19,15,57,-10,127,-100,-54,11,-37,101,-87,40,-94,-51,119,-14, 
  /* [74][0][][] */ -121,-6,-127,-79,58,-47,-32,22,-89,-3,-124,-27,-52,-72,-32,90, 
  /* [75][0][][] */ 89,-32,52,-51,15,6,-127,-28,-11,-108,65,11,-6,-21,1,-6, 
  /* [76][0][][] */ 3,-46,-31,112,39,92,90,-50,84,-127,55,101,44,-94,-54,32, 
  /* [77][0][][] */ -48,-44,127,-29,29,-35,-23,-117,12,15,42,102,40,46,11,9, 
  /* [78][0][][] */ -58,-3,8,-46,-9,-61,42,-14,17,-22,23,-86,-114,-74,-127,-45, 
  /* [79][0][][] */ -115,-84,-25,17,127,33,-10,20,14,24,-12,63,-54,-82,-77,-12, 
  /* [80][0][][] */ -6,-127,46,118,-41,-38,-102,76,-8,21,85,13,-83,-9,-35,82, 
  /* [81][0][][] */ 99,58,-9,77,-7,37,27,127,15,4,108,60,112,24,62,-14, 
  /* [82][0][][] */ -50,5,22,-30,37,-127,-123,-82,6,86,-40,-36,-25,110,-74,-23, 
  /* [83][0][][] */ 107,-22,76,-32,-35,-14,-127,-11,26,-117,17,-48,-20,-6,5,-24, 
  /* [84][0][][] */ 23,-58,-90,35,127,43,28,36,-99,27,-107,-34,50,-29,-55,8, 
  /* [85][0][][] */ 0,76,46,-55,85,4,52,-106,127,-41,37,-2,86,-94,9,8, 
  /* [86][0][][] */ 113,-38,127,39,8,-58,70,39,-58,-46,-89,-39,30,21,-69,14, 
  /* [87][0][][] */ 1,12,22,-76,79,-33,-51,18,40,-35,76,-41,-83,-127,-7,21, 
  /* [88][0][][] */ -68,-39,40,-8,19,27,-62,-52,-8,6,-78,-127,-57,-46,-18,-13, 
  /* [89][0][][] */ -82,17,19,-75,24,12,-127,22,93,18,-78,-9,-11,-96,-42,-27, 
  /* [90][0][][] */ -15,-16,-27,-88,127,25,-52,41,50,54,28,-8,26,15,-78,-20, 
  /* [91][0][][] */ -30,-55,21,46,-31,-13,-14,66,-30,-41,34,-40,-1,61,8,127, 
  /* [92][0][][] */ -20,72,2,-14,-18,57,-96,46,-34,-6,68,5,-35,127,45,26, 
  /* [93][0][][] */ 1,90,-65,-67,84,102,-95,9,62,69,75,54,-127,24,-39,76, 
  /* [94][0][][] */ 34,74,106,18,-127,-39,6,-11,27,-15,28,-25,-50,-16,15,-30, 
  /* [95][0][][] */ -17,17,60,-15,127,-31,-96,88,22,12,-77,114,-19,18,93,-30, 
};
const TfArray<4, int> tensor_dimension7 = { 4, { 96,1,1,16 } };
const TfArray<96, float> quant7_scale = { 96, { 0.0014637230196967721, 0.0026120569091290236, 0.0021009675692766905, 0.0016331621445715427, 0.0017939865356311202, 0.0019996226765215397, 0.0020012708846479654, 0.0022895161528140306, 0.0021935608237981796, 0.0028178305365145206, 0.0016014317516237497, 0.0029310316313058138, 0.0016129121650010347, 0.00095145113300532103, 0.0017129126936197281, 0.0024547106586396694, 0.0025335915852338076, 0.0021358705125749111, 0.0014999036211520433, 0.001139099826104939, 0.0022470611147582531, 0.0019574181642383337, 0.0015871524810791016, 0.0019408534280955791, 0.0026274004485458136, 0.0024404223076999187, 0.0019515557214617729, 0.0018417536048218608, 0.0017295799916610122, 0.0024480095598846674, 0.0013974267058074474, 0.0020785641390830278, 0.0025855316780507565, 0.0015123365446925163, 0.0014543201541528106, 0.0015599210746586323, 0.0018458056729286909, 0.0011553056538105011, 0.0017389321001246572, 0.001417890889570117, 0.0021433725487440825, 0.0018601767951622605, 0.0020507914014160633, 0.0012479393044486642, 0.0016696123639121652, 0.0017503035487607121, 0.0022629140876233578, 0.0022527177352458239, 0.0011837399797514081, 0.0016186805441975594, 0.002250143326818943, 0.0018185043008998036, 0.0012413058429956436, 0.0022900209296494722, 0.0017663402250036597, 0.0020058441441506147, 0.0019688042812049389, 0.0014623365132138133, 0.0024476072285324335, 0.0016145436093211174, 0.0025057359598577023, 0.0016457145102322102, 0.0031143669039011002, 0.0018900549039244652, 0.0014295799192041159, 0.0013648655731230974, 0.0016443318454548717, 0.0016846804646775126, 0.0020049631129950285, 0.0018137660808861256, 0.002004704438149929, 0.0014443632680922747, 0.0017699007876217365, 0.0014728393871337175, 0.001713035861030221, 0.0014600655995309353, 0.001505038351751864, 0.0018726494163274765, 0.0017985691083595157, 0.0018993203993886709, 0.00097082986030727625, 0.00157045794185251, 0.0019073671428486705, 0.0020762968342751265, 0.0019354756223037839, 0.0020402136724442244, 0.0025981101207435131, 0.0021104018669575453, 0.0017038529040291905, 0.0018528264481574297, 0.0018361747497692704, 0.0022300127893686295, 0.0019740879070013762, 0.0014363067457452416, 0.0025308397598564625, 0.0018429763149470091, } };
const TfLiteAffineQuantization quant7 = { (TfLiteFloatArray*)&quant7_scale, (TfLiteIntArray*)&g0::quant6_zero, 0 };
const MODEL_SECTION(EI_MODEL_SECTION) ALIGN(16) int32_t tensor_data8[16] = { 9761, 12392, -3028, 1530, -244, 7645, 2045, 1851, 16238, -5190, -10522, 7405, -15491, 12799, 5896, 11413, };
const TfArray<1, int> tensor_dimension8 = { 1, { 16 } };
const TfArray<16, float> quant8_scale = { 16, { 4.7537301725242287e-05, 5.8325611462350935e-05, 5.0730341172311455e-05, 6.5281892602797598e-05, 7.267875480465591e-05, 6.7030618083663285e-05, 5.5452375818276778e-05, 4.9615799071034417e-05, 9.3941511295270175e-05, 7.7030126703903079e-05, 5.2644991228589788e-05, 5.6553632020950317e-05, 6.4369618485216051e-05, 5.8147277741227299e-05, 7.4682349804788828e-05, 7.4292227509431541e-05, } };
const TfArray<16, int> quant8_zero = { 16, { 0,0,0,0,0,0,0,0,0,0,0,0,0,0,0,0 } };
const TfLiteAffineQuantization quant8 = { (TfLiteFloatArray*)&quant8_scale, (TfLiteIntArray*)&quant8_zero, 0 };
const MODEL_SECTION(EI_MODEL_SECTION) ALIGN(16) int8_t tensor_data9[16*1*1*96] = { 
  /* [0][0][][] */ -126,38,79,-37,-77,-14,-66,-6,-58,14,-1,-28,43,48,39,-35,6,-6,106,16,7,-49,127,71,50,34,4,30,-65,-119,-86,16,-41,-53,25,23,-2,30,0,22,-7,6,-73,15,-82,-22,10,103,-15,26,-60,-22,-24,-1,23,-49,-108,9,-11,88,69,34,6,1,-29,-63,-50,21,-47,-71,8,-19,3,4,-78,-52,-55,7,-36,12,-51,73,83,-67,12,64,16,48,33,-8,3,-36,-35,-42,-71,14, 
  /* [1][0][][] */ 32,17,34,-53,-65,-17,-18,15,-14,29,66,-49,12,-4,-76,-31,-6,-4,-62,34,-12,-81,18,54,0,-60,-5,-56,71,-103,113,-81,63,20,-22,58,40,83,-19,-36,23,16,5,-3,7,68,-127,-42,-47,-47,-21,-24,31,-55,-42,51,15,2,-31,23,39,52,2,-107,-9,-5,-65,-6,-3,-9,-89,-2,-46,-22,16,-81,3,18,20,-65,-22,-24,-83,-34,36,-31,-18,15,-66,-3,-47,55,11,55,-65,55, 
  /* [2][0][][] */ 84,-35,14,31,23,-77,65,6,-13,-21,-19,-18,-83,-34,17,-41,-98,-45,-46,38,9,-44,-49,24,-13,-76,2,-20,-32,34,-59,127,-59,127,-24,16,-20,-24,-12,-20,-90,79,68,9,-65,1,-12,-22,29,-2,-26,-50,62,-13,-17,63,34,-6,49,-15,1,39,-40,15,65,13,1,-4,37,55,-41,-3,54,45,64,48,37,-67,72,49,83,-23,-37,29,-61,24,16,75,3,3,-29,22,-38,48,-6,31, 
  /* [3][0][][] */ -7,-9,-12,1,9,-15,12,-66,-25,62,48,54,33,-9,-53,43,-3,-40,36,12,11,127,29,-46,11,25,-17,9,63,-39,66,-9,-16,27,-30,-25,18,54,37,-1,-72,-26,-31,31,-39,37,26,4,-17,-41,-13,-27,38,-88,-37,-41,11,93,-20,5,2,-7,-35,1,30,41,-44,-4,-14,-5,10,-74,-25,-40,34,-14,6,-9,-30,-36,-19,-3,-59,20,-6,-35,37,-31,5,30,37,-27,48,23,-40,60, 
  /* [4][0][][] */ 26,11,-39,17,28,20,-47,8,-30,68,87,-20,-13,6,8,-53,7,-9,-32,39,15,-38,51,78,-73,-6,-127,13,-45,-70,5,15,-64,-50,16,52,5,35,30,21,-35,-40,49,-30,-6,13,-34,46,-42,53,11,17,37,-10,-74,19,49,-20,17,-11,41,-8,24,7,-48,16,-32,12,-40,31,-41,52,46,-60,-39,-38,27,-53,-6,6,-41,79,-73,5,-22,16,26,-51,48,1,28,2,-49,-22,40,27, 
  /* [5][0][][] */ -71,36,42,-3,55,-14,52,-31,-5,40,-9,-36,30,-18,-30,-46,2,-34,50,24,-127,-28,-64,50,-33,-4,53,2,46,-79,-16,37,65,127,-14,39,-4,21,32,-7,-36,92,85,-28,9,74,35,-9,-1,10,-23,29,20,-37,30,-104,47,-66,-73,-63,70,95,-42,-23,80,-33,-84,-63,-74,-22,-67,1,-26,3,-32,-44,28,-38,-43,-20,126,-30,30,-101,-87,38,33,-9,-44,39,28,5,-31,40,0,88, 
  /* [6][0][][] */ 47,-9,-95,38,-32,-108,98,90,-65,59,-25,66,-127,-79,65,48,4,-51,-15,-5,-5,-6,-65,-66,-67,39,68,29,31,21,79,-53,17,19,16,-78,6,-3,34,73,10,16,-65,-33,3,-67,-72,8,29,-127,-18,71,44,17,-16,-66,66,39,10,-12,-119,46,-102,8,21,7,5,58,45,30,1,-49,-39,19,93,45,69,-18,34,-75,-14,-50,-69,62,-2,-72,43,19,-52,53,28,36,-14,10,-23,109, 
  /* [7][0][][] */ 25,84,-34,-63,-30,-17,44,4,-59,37,-41,-52,-32,17,17,-4,-55,-52,-28,64,-10,127,7,37,-11,7,23,36,51,44,83,-19,74,26,-20,15,6,-5,10,22,-61,6,15,-48,9,-44,81,-20,45,-69,-89,-26,-57,3,-5,-8,27,24,-95,8,2,123,24,-28,-17,-8,-48,11,-27,-22,-106,27,21,79,-30,39,-62,50,18,-77,-11,-47,55,-69,48,-17,1,-6,-2,83,-79,40,60,-35,-41,20, 
  /* [8][0][][] */ -14,79,-39,42,-32,-30,-84,29,-101,-35,3,7,-38,33,35,77,-3,-40,2,2,35,0,3,-17,-39,70,-5,30,-13,-24,-38,-24,-25,-48,-21,-69,-51,24,46,0,-7,-35,29,4,-40,-37,15,-12,-26,-16,46,71,-3,-15,-63,99,-40,25,5,-44,-40,5,14,53,-35,-62,-31,-5,-30,11,7,2,-16,-51,-116,-14,-40,27,-61,-35,-30,-2,-36,-24,-3,-5,13,32,9,57,-57,-16,-77,-127,28,-51, 
  /* [9][0][][] */ -22,17,-68,40,-35,-27,65,48,-7,48,-15,94,-19,-16,20,127,10,6,76,12,15,18,35,-92,-26,-1,25,-11,10,-16,39,49,-23,-5,-5,-106,27,-15,-17,-28,-20,20,47,-17,-16,9,15,21,36,91,17,-12,-64,-81,-6,2,4,-1,66,-10,-54,60,-53,-31,80,-9,-29,4,-67,23,30,36,-5,89,-18,-23,-35,16,-42,-14,52,-30,56,-4,33,-9,-9,-38,-48,29,8,-6,59,36,-51,-2, 
  /* [10][0][][] */ 65,6,-41,-9,-41,-28,82,-5,11,-24,-17,1,-89,-23,9,-4,-85,-37,26,25,38,40,16,9,-51,82,41,5,-54,-84,-30,-3,74,-35,48,15,76,-85,96,120,21,-52,5,9,-31,-99,2,68,33,94,-71,-40,-28,25,14,51,21,-58,86,45,-17,56,-77,-14,-4,-67,24,55,35,-26,-12,37,127,45,33,-91,25,-53,62,-12,-43,37,32,32,-43,-8,11,39,-44,-12,25,47,66,74,-26,14, 
  /* [11][0][][] */ -56,-34,49,-75,10,-10,-22,-49,50,-41,3,1,-7,-6,14,11,-71,-3,67,12,-56,19,-76,-79,12,12,-44,48,33,-71,41,-28,18,-2,23,-25,-72,9,-123,7,-64,72,-46,62,10,8,1,-35,22,-41,-61,-53,16,26,82,-67,-28,-64,18,-51,-26,-46,-30,-119,8,-69,66,67,127,16,74,-30,-32,-10,70,-41,95,40,33,45,32,-5,-25,93,83,9,-2,-24,-76,-66,-18,17,60,44,64,79, 
  /* [12][0][][] */ 36,-22,-3,-42,33,113,-9,40,51,69,8,62,15,56,6,4,-61,47,17,49,127,-10,72,-68,40,30,-68,-77,-12,92,12,12,39,-9,5,-31,49,-5,-40,-28,17,-24,44,64,-16,46,-4,-11,-61,33,-3,20,-30,-30,9,15,-41,66,8,60,38,-90,22,-105,-5,95,-19,-40,-12,-48,57,15,-15,13,-12,54,-17,49,-81,-12,-23,28,121,13,-3,84,-24,-74,87,17,-77,64,64,5,-29,-94, 
  /* [13][0][][] */ -17,36,-6,-59,-40,-14,15,-45,10,-32,-25,-81,60,-111,-37,-81,-23,-41,-84,-25,-105,-32,9,101,-40,5,118,20,21,-52,63,62,15,-1,-127,126,-39,-61,36,-75,120,25,-8,36,-19,-96,72,-23,74,-2,-55,26,15,-6,-5,78,68,-54,-36,-13,61,56,2,-89,-7,29,-38,32,-59,-45,-84,-6,-71,27,-43,-96,-120,19,46,80,-12,67,33,-82,61,40,30,-21,-20,-6,-4,10,-50,20,-18,-6, 
  /* [14][0][][] */ -13,19,-78,-36,80,88,-96,-12,35,-38,89,-10,14,-21,-46,-67,-64,11,38,127,6,-32,-1,7,10,43,-29,63,9,-2,-21,3,70,-9,-39,7,-9,57,67,9,54,-6,30,14,-12,-38,51,-35,25,-1,-21,-28,38,7,-46,25,10,63,-96,-2,-9,-66,-34,-108,8,-43,-58,-9,-85,48,-25,31,-5,-30,-29,-39,30,-19,-51,-34,27,8,-5,-19,-7,53,-10,-26,-28,77,76,17,-10,-46,-60,-68, 
  /* [15][0][][] */ -68,-35,34,-59,11,-28,-27,-90,-7,6,-14,62,-10,-19,35,85,-104,-23,16,-69,18,-26,-20,-85,37,-12,45,-44,-60,-109,-68,38,-36,51,74,-99,-10,-44,33,-24,-13,0,19,-29,-1,-3,69,97,-47,-12,30,-53,-38,52,13,-49,-93,-16,96,6,-34,16,-100,29,-64,-17,6,22,57,-71,82,-30,53,-29,-24,-41,12,21,53,0,-19,74,49,26,-1,-21,-127,6,-14,-52,-90,20,55,-29,-12,64, 
};
const TfArray<4, int> tensor_dimension9 = { 4, { 16,1,1,96 } };
const TfArray<16, float> quant9_scale = { 16, { 0.0020203352905809879, 0.0024788384325802326, 0.0021560394670814276, 0.0027744804974645376, 0.0030888470355421305, 0.0028488012030720711, 0.0023567259777337313, 0.0021086714696139097, 0.003992514219135046, 0.003273780457675457, 0.0022374121472239494, 0.0024035293608903885, 0.0027357086073607206, 0.0024712593294680119, 0.0031739997211843729, 0.0031574196182191372, } };
const TfLiteAffineQuantization quant9 = { (TfLiteFloatArray*)&quant9_scale, (TfLiteIntArray*)&g0::quant8_zero, 0 };
const MODEL_SECTION(EI_MODEL_SECTION) ALIGN(16) int32_t tensor_data10[96] = { 339, -123, -1953, -4191, -770, 3127, -1957, -1113, -1404, -3647, 9662, -1609, 1394, 9475, 9036, -4026, 15498, 2306, -4465, 260, -274, 55, 847, -2119, 307, -3180, 352, -4210, 1433, -6611, -104, 18, 13112, 383, -2406, -43, -42, -1194, -442, 5171, 1583, 189, 678, -6218, 13493, 15193, -145, 12619, -1080, 11121, 12752, -2213, -334, -1944, -316, 9328, -951, 315, 11020, 6497, 8592, 11316, 4024, -7868, 1081, 1975, -3461, 1617, -2300, -2138, 1411, 1180, 13116, 84, -791, 11048, -416, -278, 8188, -948, 982, 17107, -642, 3434, 17384, 2010, -4108, -3956, -2010, -5741, 14823, 301, 2395, -464, -5617, -2914, };
const TfArray<96, float> quant10_scale = { 96, { 0.00027603303897194564, 0.00015539166633971035, 0.0001280410069739446, 0.00016531853179913014, 0.00028472719714045525, 0.0003002118319272995, 0.00029955111676827073, 0.00025830767117440701, 0.00021652433497365564, 0.00014843394455965608, 0.00010436614684294909, 0.00040855162660591304, 0.00023333397984970361, 0.00012026917102048174, 0.00013578856305684894, 0.0001497130433563143, 0.00012679817155003548, 0.00024801984545774758, 0.00016340133151970804, 0.00011455247295089066, 0.00020007971033919603, 0.00038598605897277594, 0.00020387271069921553, 0.00021098033175803721, 0.00057961576385423541, 0.00026530577451921999, 0.00028477859450504184, 0.000144619305501692, 0.00017554139776621014, 0.00010349655349273235, 0.00033916582469828427, 0.00021762958203908056, 0.00017714653222355992, 0.00017866221605800092, 0.00028011796530336142, 0.00057228776859119534, 0.00018016749527305365, 0.00042044639121741056, 0.0004121262754779309, 0.00012345527647994459, 0.00020121842680964619, 0.00021042861044406891, 0.00025635244674049318, 0.00012152622366556898, 9.5127710665110499e-05, 8.5980798758100718e-05, 0.00022006464132573456, 0.00012452866940293461, 0.00020861714438069612, 8.8618486188352108e-05, 0.00014898352674208581, 0.00015606463421136141, 0.00017753217252902687, 0.00016390200471505523, 0.00020789816335309297, 0.00018133096455130726, 0.0002207329380325973, 0.00021798943635076284, 0.00017616321565583348, 0.00014832915621809661, 0.00014854461187496781, 0.00019579011132009327, 0.00018099452427122742, 0.00011647321662167087, 0.00015988231461960822, 0.00025195864145644009, 0.00019358933786861598, 0.00020731048425659537, 0.00024336064234375954, 0.00023941304243635386, 0.00024639023467898369, 0.00015284001710824668, 0.00012288703874219209, 0.00024583222693763673, 0.00033484437153674662, 0.00010799436859088019, 0.00016252772184088826, 0.00022203470871318132, 0.00018357313820160925, 0.00023403676459565759, 0.00027210675762034953, 0.00010464463412063196, 0.000256984872976318, 0.00018246177933178842, 7.8155637311283499e-05, 0.00020739833416882902, 0.00013988127466291189, 0.00016425052308477461, 0.00022048484242986888, 0.00021659659978467971, 8.4098457591608167e-05, 0.00036501686554402113, 0.00022812926908954978, 0.00032989730243571103, 9.283256804337725e-05, 0.00033325841650366783, } };
const TfLiteAffineQuantization quant10 = { (TfLiteFloatArray*)&quant10_scale, (TfLiteIntArray*)&g0::quant6_zero, 0 };
const MODEL_SECTION(EI_MODEL_SECTION) ALIGN(16) int8_t tensor_data11[1*3*3*96] = { 
  /* [0][0][][] */ 27,111,-1,18,-28,0,45,36,79,-73,-96,22,-23,-27,31,-52,-107,12,15,21,38,55,66,92,23,-7,-41,2,-28,20,11,-15,-64,-2,-26,90,-8,41,5,4,20,-32,-8,28,-99,-59,10,-21,-28,-107,-16,-7,4,60,-18,-14,-74,-69,-49,-127,-127,8,-78,3,-37,35,29,-13,-11,45,42,-20,-35,11,52,9,-6,-40,-50,28,1,-80,47,-38,-90,-57,-9,33,-105,16,-104,35,65,-2,59,4, -37,-49,1,80,-2,99,-14,-1,81,28,-127,51,-38,-52,-127,127,-111,67,49,71,126,7,111,127,36,14,14,50,-7,127,-17,-127,55,83,10,46,71,105,-22,-127,127,-12,96,108,-51,-67,127,-75,-4,-127,-84,-35,3,127,-21,-127,7,21,-127,-73,-68,-127,-31,99,-41,78,112,-21,1,127,127,-11,-70,20,-30,-92,18,-61,-13,127,-6,-44,127,-88,-117,-51,117,81,96,99,-101,6,127,-22,127,37, 21,-117,11,17,-14,-22,-2,39,34,62,-77,3,-23,43,13,-74,-43,8,3,20,41,38,50,96,27,-27,18,35,-2,10,-14,-42,-65,-72,-23,67,9,0,13,19,-18,35,-26,52,-51,-23,-4,15,29,-82,16,9,-3,5,18,-6,48,-79,-1,-78,-91,34,-55,-1,38,10,-22,-15,-18,-3,17,1,-17,-45,-3,12,7,-19,-56,6,-2,-89,33,-24,-23,-42,-1,-7,-73,1,-40,28,10,39,31,-6, 
  /* [0][1][][] */ 85,-13,56,116,8,-55,127,44,-21,-126,-93,127,-9,-127,-58,14,-67,-48,71,37,-117,-4,-127,-54,-11,44,-127,127,-97,65,127,86,15,58,16,127,-127,63,-23,-52,56,-127,24,86,-127,-100,8,-101,-120,-86,-113,7,127,-41,83,-17,-127,-1,-55,5,-78,-71,-25,51,-106,-26,102,-94,-53,33,-44,-127,-104,61,127,-104,84,80,-103,-42,127,-127,-31,116,-51,-16,9,94,-6,26,-72,26,-18,-74,91,-17, -127,-1,-46,127,-93,-127,-115,-127,80,14,-29,39,-99,-100,-61,99,-127,-127,127,127,28,-127,-100,90,-127,127,15,71,-94,-31,-107,70,-127,94,127,-40,24,127,127,-99,-51,31,28,49,-62,-127,-76,-127,-3,-89,-127,127,52,78,47,-69,29,21,78,-16,-30,-45,-127,127,-5,-127,127,127,13,61,-107,-64,-30,64,-108,-127,127,127,60,-52,-95,26,-85,65,-121,-93,127,127,127,127,-127,-127,-110,-46,107,127, 47,0,83,68,9,-32,11,41,-55,127,-75,67,3,-8,-125,60,11,-36,14,3,-127,7,-84,-65,0,13,118,-8,127,86,17,-96,-31,-127,-7,117,-117,-3,-41,-39,-21,92,25,127,-26,-40,-2,-77,127,-77,-79,-10,57,-66,-127,25,110,3,-118,63,-38,-45,23,50,127,-45,-3,-8,-63,1,-35,-41,-127,-127,-2,-61,1,-17,-127,-36,-76,-123,-22,127,-127,13,-15,2,-25,-11,-15,38,-29,127,35,-18, 
  /* [0][2][][] */ 28,-127,37,-7,14,7,36,54,-32,-38,7,-45,8,-27,3,38,-18,18,-4,52,4,34,-6,-14,23,39,-11,-3,-36,13,8,13,-24,-25,-18,11,40,0,-6,-16,-11,11,-14,-22,-25,-57,-15,0,-8,35,-23,20,-19,8,-34,-5,-8,-2,27,19,-15,-2,59,-2,-41,42,-34,-17,27,11,11,88,-37,12,9,-1,-23,-23,-14,-2,0,-49,-21,-59,-46,29,-38,-14,-65,37,6,19,-23,-4,23,-26, -49,20,127,-12,127,77,-28,17,-127,29,-64,-49,127,-16,-61,11,4,43,8,-42,18,4,54,11,71,-43,-14,26,-19,93,-5,7,-68,23,15,-9,76,23,16,-96,-31,-9,-127,21,-18,-10,-45,-59,-4,-55,-63,77,92,-51,-31,-61,-14,127,-9,4,83,-111,104,69,-31,16,-31,16,127,-9,3,106,-97,26,-22,-66,0,-82,-32,-44,-21,-98,-31,-96,-46,127,28,14,92,38,49,20,-41,-17,-1,-11, 9,105,17,-12,3,-13,-5,48,-3,77,27,-11,0,2,13,55,-30,9,-13,35,-13,29,-11,-38,13,30,5,24,2,20,-23,-75,-61,-28,-10,-5,35,-24,-8,0,-14,-14,5,24,-40,-26,-19,13,23,37,-18,2,-21,-7,8,9,1,9,23,51,-21,6,49,-9,29,10,-54,24,11,4,13,89,9,-20,-8,-13,-1,-12,-12,4,-13,-85,-17,-24,-27,28,-35,-12,-60,31,8,14,-30,6,12,-17, 
};
const TfArray<4, int> tensor_dimension11 = { 4, { 1,3,3,96 } };
const TfArray<96, float> quant11_scale = { 96, { 0.011731403879821301, 0.0066041457466781139, 0.0054417424835264683, 0.0070260372012853622, 0.012100906111299992, 0.012759002856910229, 0.012730922549962997, 0.010978075675666332, 0.0092022838070988655, 0.006308442447334528, 0.0044355611316859722, 0.017363443970680237, 0.0099166939035058022, 0.0051114396192133427, 0.0057710139080882072, 0.0063628042116761208, 0.0053889220580458641, 0.01054084300994873, 0.0069445567205548286, 0.0048684799112379551, 0.0085033876821398735, 0.016404407098889351, 0.0086645903065800667, 0.0089666638523340225, 0.024633670225739479, 0.011275495402514935, 0.012103090062737465, 0.0061463206075131893, 0.0074605089612305164, 0.0043986034579575062, 0.014414547011256218, 0.0092492569237947464, 0.0075287274084985256, 0.0075931441970169544, 0.011905013583600521, 0.024322228506207466, 0.0076571186073124409, 0.017868971452116966, 0.017515366896986961, 0.0052468492649495602, 0.0085517829284071922, 0.0089432159438729286, 0.010894979350268841, 0.0051648644730448723, 0.0040429276414215565, 0.0036541838198900223, 0.0093527473509311676, 0.0052924682386219501, 0.0088662281632423401, 0.0037662854883819818, 0.0063317995518445969, 0.0066327471286058426, 0.0075451172888278961, 0.0069658351130783558, 0.0088356714695692062, 0.0077065657824277878, 0.0093811498954892159, 0.0092645511031150818, 0.0074869366362690926, 0.0063039888627827168, 0.0063131456263363361, 0.0083210794255137444, 0.0076922671869397163, 0.0049501117318868637, 0.0067949979566037655, 0.010708242654800415, 0.0082275466993451118, 0.0088106952607631683, 0.010342827066779137, 0.010175053961575031, 0.010471584275364876, 0.0064957006834447384, 0.0052226991392672062, 0.010447870008647442, 0.014230885542929173, 0.0045897606760263443, 0.0069074281491339207, 0.0094364751130342484, 0.0078018582426011562, 0.0099465623497962952, 0.011564536951482296, 0.004447396844625473, 0.010921856388449669, 0.0077546257525682449, 0.0033216145820915699, 0.0088144289329648018, 0.0059449542313814163, 0.0069806473329663277, 0.0093706054612994194, 0.0092053553089499474, 0.0035741843748837709, 0.015513216145336628, 0.0096954936161637306, 0.014020634815096855, 0.0039453841745853424, 0.014163482934236526, } };
const TfLiteAffineQuantization quant11 = { (TfLiteFloatArray*)&quant11_scale, (TfLiteIntArray*)&g0::quant6_zero, 3 };
const MODEL_SECTION(EI_MODEL_SECTION) ALIGN(16) int32_t tensor_data12[96] = { 5244, 2781, 925, -1229, 4313, 7101, 8601, 1774, -269, 8402, 1187, -3531, 4160, 2695, 487, -376, 2664, 8421, -832, -13, 4343, 12639, 9945, -1766, -2515, -801, 11098, -48, 1557, 1056, 7872, -1180, 8177, 2167, 3440, -3890, 1021, -5582, 264, 1722, 1896, 1205, 1163, -297, 920, 2168, 3662, 2769, 2916, 2638, 5173, 2292, -2174, 1778, 1387, 2045, 1576, 2999, 6090, 1113, -618, 5173, 3496, 3617, 4190, 6049, -4398, 2023, 5233, -746, 5851, 1474, 2577, 3880, 2821, 1837, -527, 1869, 2589, 2846, 2606, 2762, 7753, 785, 2140, 4356, 632, -886, 12295, -216, 835, -1041, 10047, 2541, 75, -817, };
const TfArray<96, float> quant12_scale = { 96, { 0.00013647724699694663, 0.00012893538223579526, 0.00018452717631589621, 0.0001846707018557936, 0.00016593876352999359, 0.0001150037205661647, 9.5041265012696385e-05, 0.00016042342758737504, 0.00017698114970698953, 9.2245099949650466e-05, 0.00015612861898262054, 0.00012586533557623625, 0.00012966069334652275, 0.00017912540351971984, 0.00018810406618285924, 0.00016248696192633361, 0.00023212177620735019, 8.7978689407464117e-05, 0.00012576866720337421, 0.00016201952530536801, 0.00014118546096142381, 6.8739645939785987e-05, 9.0057772467844188e-05, 0.00017282692715525627, 0.00022429435921367258, 0.00014845091209281236, 8.1224767200183123e-05, 0.00016200817481148988, 0.00017910062160808593, 0.00018571961845736951, 0.00010827851656358689, 0.00023910657910164446, 0.00010123365063918754, 0.00021871797798667103, 0.00019787998462561518, 0.00016232684720307589, 0.00013955504982732236, 0.00010846239456441253, 0.00017568370094522834, 0.00017724411736708134, 0.00023207158665172756, 0.00019874829740729183, 0.00028514984296634793, 0.00024488326744176447, 0.00028648311854340136, 0.00017880617815535516, 0.00015620772319380194, 0.0002086761815007776, 0.00020585369202308357, 0.00018023324082605541, 0.00013532413868233562, 0.00018472231749910861, 0.00017722524353303015, 0.00019085055100731552, 0.00016614285414107144, 0.00021598083549179137, 0.00020314824359957129, 0.00013751073856838048, 0.00012935402628500015, 0.00018947782518807799, 0.00024712513550184667, 0.00014085951261222363, 0.00017481156100984663, 0.00017053060582838953, 0.00013765334733761847, 0.00012267850979696959, 0.00012779647659044713, 0.00020392211445141584, 0.00012206490646349266, 0.00019489089027047157, 0.00012155699369031936, 0.00013594832853414118, 0.00017112721980083734, 0.00011330222332617268, 0.00019099347991868854, 0.00014242381439544261, 0.00019037930178456008, 0.00019333534874022007, 0.00014644688053522259, 0.00017586207832209766, 0.00016356373089365661, 0.00015532791439909488, 9.5570518169552088e-05, 0.00017759796173777431, 0.00016838603187352419, 0.00016130214498843998, 0.00019837594300042838, 0.00022878751042298973, 7.4356285040266812e-05, 0.00018803364946506917, 0.00021918272250331938, 0.00023125352163333446, 8.7814114522188902e-05, 0.0001551230379845947, 0.00023842327937018126, 0.00015360502584371716, } };
const TfLiteAffineQuantization quant12 = { (TfLiteFloatArray*)&quant12_scale, (TfLiteIntArray*)&g0::quant6_zero, 0 };
const MODEL_SECTION(EI_MODEL_SECTION) ALIGN(16) int8_t tensor_data13[96*1*1*16] = { 
  /* [0][0][][] */ -43,53,-8,-18,-22,-55,-53,-28,66,-41,33,-63,65,-113,21,-127, 
  /* [1][0][][] */ -96,78,-102,-96,-71,37,-15,57,-40,-1,90,-61,57,127,17,51, 
  /* [2][0][][] */ -49,-14,-79,12,-12,-36,25,-36,-76,127,65,16,36,41,-44,103, 
  /* [3][0][][] */ -61,-81,4,-50,-95,4,-53,-127,-9,18,35,-72,-79,-44,-126,-45, 
  /* [4][0][][] */ 72,-6,-19,50,-58,4,-127,41,31,82,16,59,14,-4,-47,-87, 
  /* [5][0][][] */ -101,53,-85,-32,67,-71,-20,-77,102,-27,12,-45,12,-110,-127,-88, 
  /* [6][0][][] */ -14,-51,-23,17,-103,67,50,-38,-12,-51,127,-30,-9,-5,-106,12, 
  /* [7][0][][] */ -20,99,127,-72,60,70,-11,-59,39,69,-90,-8,41,-1,18,63, 
  /* [8][0][][] */ -40,17,39,0,59,17,95,127,-85,-28,-65,-84,36,95,-56,-58, 
  /* [9][0][][] */ 43,56,86,36,-119,-45,-95,-117,70,21,127,34,-34,-97,46,-4, 
  /* [10][0][][] */ -3,-107,5,-77,-127,79,30,30,-35,-56,-8,39,-19,49,-111,22, 
  /* [11][0][][] */ 117,-51,-10,83,-111,-40,64,-19,127,112,-58,38,22,-84,-26,105, 
  /* [12][0][][] */ -69,-70,127,-8,60,-15,30,66,86,-14,106,78,-31,15,-112,40, 
  /* [13][0][][] */ -5,-36,13,17,14,1,124,33,-99,16,14,14,-25,127,83,-73, 
  /* [14][0][][] */ 127,-68,97,17,87,66,103,50,76,60,67,32,81,-47,28,-48, 
  /* [15][0][][] */ -6,124,17,-55,27,127,-86,64,-45,-18,-40,-6,-53,118,-19,-55, 
  /* [16][0][][] */ -43,60,101,-43,24,85,5,-4,1,6,-10,38,87,-1,79,127, 
  /* [17][0][][] */ 18,114,85,-127,47,-55,9,-85,-41,101,-26,52,-62,-20,101,-53, 
  /* [18][0][][] */ -79,13,-76,-79,127,97,-39,-79,43,89,125,68,2,114,-47,-14, 
  /* [19][0][][] */ 49,127,75,76,59,-21,2,-6,-34,102,46,99,67,60,-54,32, 
  /* [20][0][][] */ 105,5,3,61,-84,1,-31,49,-37,-55,-127,-49,102,-48,35,-13, 
  /* [21][0][][] */ -107,-81,-33,116,-42,13,-127,69,-3,-14,42,27,-33,44,-70,18, 
  /* [22][0][][] */ -14,-9,-68,-57,127,-1,-27,63,57,68,50,67,-30,25,-11,38, 
  /* [23][0][][] */ -63,23,-24,15,24,54,113,82,-20,127,-13,-31,10,36,-56,-27, 
  /* [24][0][][] */ 34,-58,34,-1,127,41,68,-44,47,34,38,20,-63,27,-9,-11, 
  /* [25][0][][] */ 124,-61,69,20,18,-18,-30,82,127,-23,-61,-2,110,-60,84,35, 
  /* [26][0][][] */ 50,34,110,92,84,-14,-69,-12,4,69,15,127,23,-66,21,-56, 
  /* [27][0][][] */ -49,37,-79,15,-20,87,27,-88,25,-82,127,10,52,-30,103,105, 
  /* [28][0][][] */ -44,35,-77,-127,35,-79,9,-55,-101,82,-56,27,-18,31,-29,75, 
  /* [29][0][][] */ 78,85,-67,38,20,68,-45,-12,40,40,6,58,-127,12,-29,71, 
  /* [30][0][][] */ -35,70,-121,-52,68,-26,20,20,-63,41,-60,1,9,61,-7,127, 
  /* [31][0][][] */ 20,-110,85,39,56,-70,-67,32,-22,-10,24,-31,-71,51,33,127, 
  /* [32][0][][] */ -67,66,13,24,-115,41,18,52,17,-127,13,-80,22,48,38,38, 
  /* [33][0][][] */ -77,-5,67,81,-8,23,-46,12,-51,-55,8,-8,-5,-9,14,127, 
  /* [34][0][][] */ -17,11,-78,-97,58,-9,-9,71,17,-5,-11,-6,-61,-25,-33,127, 
  /* [35][0][][] */ 67,-10,26,-13,1,19,-74,-23,-21,-127,-52,10,-2,-27,43,-22, 
  /* [36][0][][] */ -18,15,-127,-8,47,124,-1,54,-21,23,66,31,16,37,-77,57, 
  /* [37][0][][] */ 67,50,61,-51,67,-127,46,-21,-124,69,-94,-32,16,22,116,34, 
  /* [38][0][][] */ -29,127,30,-43,42,17,64,-104,14,4,-110,22,-46,-92,-81,5, 
  /* [39][0][][] */ 90,41,-123,-125,-17,-25,12,-67,16,3,-3,-31,65,2,-127,-73, 
  /* [40][0][][] */ -26,28,-75,-72,-36,-10,20,-127,-15,-14,3,-36,32,74,38,55, 
  /* [41][0][][] */ -42,-101,-17,127,-7,-15,-68,-18,0,-61,65,-70,-77,-21,6,22, 
  /* [42][0][][] */ -17,60,-22,-127,13,9,7,-25,42,-3,-41,17,60,-14,-13,14, 
  /* [43][0][][] */ -6,39,8,25,127,32,36,27,13,35,-7,-100,-122,-51,-20,-17, 
  /* [44][0][][] */ 73,-21,19,28,-38,-16,20,33,36,-48,39,4,127,16,-60,-22, 
  /* [45][0][][] */ 25,-95,-74,38,-41,-101,15,35,35,-34,16,26,-100,127,43,-39, 
  /* [46][0][][] */ -25,-85,36,69,-3,4,-91,60,35,-58,59,-25,33,63,71,127, 
  /* [47][0][][] */ -27,-44,6,83,4,4,51,14,1,-60,-127,-39,50,-37,-55,10, 
  /* [48][0][][] */ -73,97,-16,-27,0,53,-2,-127,29,-17,39,-56,52,-110,-60,-6, 
  /* [49][0][][] */ -50,4,35,-32,0,6,118,127,-29,-38,-5,26,-39,37,-49,31, 
  /* [50][0][][] */ 63,30,-86,41,43,-127,-35,-3,-88,42,-33,-10,23,-74,-122,-42, 
  /* [51][0][][] */ -55,47,-25,107,-43,37,-41,-66,-32,-83,-7,-42,-7,23,-7,127, 
  /* [52][0][][] */ -127,2,14,-6,18,43,58,13,7,-77,-41,-34,-106,-58,-107,-9, 
  /* [53][0][][] */ -53,-75,-51,-127,-48,-3,0,90,40,-63,-53,36,-29,20,55,109, 
  /* [54][0][][] */ 6,-56,5,-3,-57,73,60,-14,-26,-88,61,30,-15,-8,-127,51, 
  /* [55][0][][] */ -22,-28,-35,32,58,-20,57,88,-55,-52,-127,-29,52,-36,-20,37, 
  /* [56][0][][] */ 78,-36,-58,-15,-127,24,-117,-6,-6,-16,-40,13,104,-39,51,8, 
  /* [57][0][][] */ -57,15,12,-37,127,46,56,45,-34,56,5,-13,-55,88,-117,-20, 
  /* [58][0][][] */ 40,9,-4,-13,52,-3,-52,-66,46,-127,-63,-7,-67,-51,-31,47, 
  /* [59][0][][] */ -60,-19,-10,6,6,43,-95,-38,70,127,-86,16,-29,4,-15,3, 
  /* [60][0][][] */ 9,-47,-1,10,-127,-39,29,12,3,40,-14,42,1,-35,28,37, 
  /* [61][0][][] */ 20,33,-91,-6,-48,-11,-127,-69,-25,10,36,114,60,-64,113,65, 
  /* [62][0][][] */ 49,-17,42,-13,-16,42,29,127,-55,121,17,80,27,29,75,83, 
  /* [63][0][][] */ 13,-127,-8,-23,-75,11,48,-18,-4,-29,-6,-5,-43,115,104,31, 
  /* [64][0][][] */ -10,-11,-127,-46,20,46,34,-19,-4,-114,49,-5,70,-47,-77,108, 
  /* [65][0][][] */ -4,4,65,58,86,-20,78,77,-45,2,-127,-82,39,105,-73,-19, 
  /* [66][0][][] */ -52,-127,-10,-102,-69,-114,41,-23,-11,-34,14,99,-75,-46,-71,84, 
  /* [67][0][][] */ -12,-67,-74,-24,-62,111,-17,-127,-68,-14,-47,-98,27,-11,-62,29, 
  /* [68][0][][] */ 120,40,21,-25,-70,17,-68,-51,-86,-127,-22,-7,40,-20,52,-80, 
  /* [69][0][][] */ 42,8,41,-26,-7,-46,-55,30,-18,127,-33,9,0,31,62,-31, 
  /* [70][0][][] */ 45,-6,-31,73,-127,30,-17,-102,94,120,34,61,45,-48,-20,20, 
  /* [71][0][][] */ 124,-80,82,111,-108,-53,54,-8,127,5,-45,37,85,-68,33,29, 
  /* [72][0][][] */ 4,-32,41,109,63,2,-127,74,88,-2,37,1,-37,-70,-79,77, 
  /* [73][0][][] */ 60,12,71,-127,63,-92,-66,37,-19,92,-39,13,11,-79,22,-46, 
  /* [74][0][][] */ 83,4,38,36,-127,-22,49,1,-77,-33,11,-48,30,-67,5,19, 
  /* [75][0][][] */ 87,127,-98,29,69,60,-20,-39,-11,-22,46,65,-97,47,52,70, 
  /* [76][0][][] */ -75,-40,8,-49,-58,-3,78,0,-69,21,83,55,-58,-127,-13,78, 
  /* [77][0][][] */ -45,127,-34,23,-58,-82,36,73,43,-55,-7,71,-14,65,-9,78, 
  /* [78][0][][] */ 126,44,-61,46,-72,34,-127,-34,-3,-15,-77,10,32,-115,18,67, 
  /* [79][0][][] */ -63,-30,127,59,-30,-86,-66,-44,-23,32,5,18,-56,104,-63,79, 
  /* [80][0][][] */ 67,102,35,-127,-6,30,85,-31,7,26,-40,22,90,-58,11,-10, 
  /* [81][0][][] */ 47,-66,8,-114,103,52,-22,127,117,27,-25,-49,-23,10,-91,-73, 
  /* [82][0][][] */ 68,47,71,-2,127,-84,33,34,1,95,-29,21,-3,-39,30,-102, 
  /* [83][0][][] */ -50,55,20,3,71,44,127,106,7,61,-27,-64,-91,89,-41,-78, 
  /* [84][0][][] */ -7,-117,8,100,-3,-97,-107,50,-88,82,-83,5,-127,72,-7,-73, 
  /* [85][0][][] */ -101,67,-44,-17,-24,-44,-64,-45,-26,64,3,-76,-127,-100,-71,46, 
  /* [86][0][][] */ -15,58,97,125,35,-39,63,24,1,16,-51,-78,39,79,-127,-69, 
  /* [87][0][][] */ -26,42,127,-36,-104,-32,28,18,36,-29,14,53,-58,21,-18,0, 
  /* [88][0][][] */ -38,-83,-127,25,33,51,4,19,-27,-94,-111,-97,119,-25,18,50, 
  /* [89][0][][] */ 32,23,14,-113,6,-61,-50,47,127,-23,31,-98,7,-44,54,-79, 
  /* [90][0][][] */ 5,73,29,10,-42,43,34,113,15,-50,-12,127,55,16,-48,78, 
  /* [91][0][][] */ -63,7,-26,72,87,61,-33,-119,-47,27,-4,14,-104,-127,-67,-9, 
  /* [92][0][][] */ -37,55,-4,-15,-127,10,-75,49,-43,48,94,73,-21,-21,63,16, 
  /* [93][0][][] */ 121,37,101,53,-127,-78,10,23,-11,-60,-31,-73,22,-66,-8,-5, 
  /* [94][0][][] */ -38,-127,28,-109,7,34,-19,7,75,-17,-7,59,8,50,-44,42, 
  /* [95][0][][] */ -48,-63,-17,-80,119,108,-47,44,104,66,-92,63,-38,127,-87,32, 
};
const TfArray<96, float> quant13_scale = { 96, { 0.0016777548007667065, 0.0015850403578951955, 0.002268446609377861, 0.00227021099999547, 0.0020399338100105524, 0.0014137744437903166, 0.0011683701304718852, 0.0019721321295946836, 0.002175681060180068, 0.0011339960619807243, 0.001919334870763123, 0.0015472994418814778, 0.0015939568402245641, 0.0022020409815013409, 0.0023124183062463999, 0.0019974997267127037, 0.0028535409364849329, 0.0010815478162840009, 0.0015461110742762685, 0.0019917534664273262, 0.0017356341704726219, 0.00084503658581525087, 0.0011071065673604608, 0.0021246119868010283, 0.0027573162224143744, 0.0018249504501000047, 0.00099851982668042183, 0.0019916140008717775, 0.0022017364390194416, 0.0022831056267023087, 0.0013310995418578386, 0.0029394072480499744, 0.0012444949243217707, 0.0026887641288340092, 0.0024325966369360685, 0.0019955313764512539, 0.0017155910609290004, 0.0013333599781617522, 0.0021597312297672033, 0.002178913913667202, 0.0028529239352792501, 0.0024432709906250238, 0.0035054304171353579, 0.0030104217585176229, 0.0035218207631260157, 0.0021981166210025549, 0.0019203072879463434, 0.0025653173215687275, 0.0025306197348982096, 0.0022156599443405867, 0.0016635792562738061, 0.0022708454634994268, 0.0021786817815154791, 0.0023461817763745785, 0.0020424427930265665, 0.0026551156770437956, 0.0024973608087748289, 0.001690459786914289, 0.0015901868464425206, 0.0023293064441531897, 0.0030379816889762878, 0.0017316272715106606, 0.0021490096114575863, 0.0020963826682418585, 0.0016922128852456808, 0.0015081227757036686, 0.0015710395528003573, 0.002506874268874526, 0.0015005796449258924, 0.0023958508390933275, 0.0014943357091397047, 0.0016712525393813848, 0.002103717066347599, 0.0013928574044257402, 0.0023479387164115906, 0.0017508576856926084, 0.0023403884842991829, 0.0023767279926687479, 0.0018003142904490232, 0.0021619240287691355, 0.0020107368472963572, 0.0019094916060566902, 0.0011748763499781489, 0.0021832636557519436, 0.0020700187887996435, 0.0019829345401376486, 0.0024386935401707888, 0.0028125518001616001, 0.00091408356092870235, 0.0023115526419132948, 0.0026944773271679878, 0.0028428672812879086, 0.0010795246344059706, 0.0019069729605689645, 0.0029310071840882301, 0.0018883115844801068, } };
const TfLiteAffineQuantization quant13 = { (TfLiteFloatArray*)&quant13_scale, (TfLiteIntArray*)&g0::quant6_zero, 0 };
const MODEL_SECTION(EI_MODEL_SECTION) ALIGN(16) int32_t tensor_data14[16] = { -29060, -7923, 5445, -14848, 10908, -13343, 29623, -9448, 12591, -11469, 13119, 10470, -6016, -29766, -231, 6310, };
const TfArray<16, float> quant14_scale = { 16, { 6.7929649958387017e-05, 6.1288956203497946e-05, 5.891728142159991e-05, 5.8764871937455609e-05, 9.1312780568841845e-05, 0.00013849367678631097, 5.0045826355926692e-05, 6.8813111283816397e-05, 0.00012740939564537257, 0.00010513010784052312, 0.0001048565682140179, 7.9882469435688108e-05, 9.3033246230334044e-05, 7.7309974585659802e-05, 7.8455319453496486e-05, 7.2173061198554933e-05, } };
const TfLiteAffineQuantization quant14 = { (TfLiteFloatArray*)&quant14_scale, (TfLiteIntArray*)&g0::quant8_zero, 0 };
const MODEL_SECTION(EI_MODEL_SECTION) ALIGN(16) int8_t tensor_data15[16*1*1*96] = { 
  /* [0][0][][] */ 32,34,4,24,-17,-80,-20,-11,-25,-73,14,-1,69,-69,51,34,-86,-36,44,6,82,23,-73,20,-13,63,127,72,11,91,57,-47,10,-2,6,-27,36,40,-11,-7,123,21,28,-29,-14,-5,17,-34,19,-47,98,-12,-71,1,47,35,-5,-35,-1,31,-19,52,-65,-6,21,-8,59,42,4,-31,18,24,7,43,16,43,57,-48,45,33,-24,51,40,46,-54,8,-8,65,16,8,-86,-24,17,5,123,77, 
  /* [1][0][][] */ 28,42,-54,-18,-8,-47,85,-71,-51,-31,-56,-40,1,-39,-10,-45,-21,-27,-27,-14,-18,-84,112,-28,-6,4,2,53,-53,17,-40,12,-23,22,17,1,-14,62,-58,84,36,11,1,-48,50,-53,0,44,-84,-7,54,-105,-30,44,64,60,30,29,-68,22,-50,11,-6,-8,39,30,100,12,-40,-127,1,9,20,59,-12,34,-49,-38,99,-19,38,-10,55,-48,-20,-52,-13,5,-20,-37,41,-3,57,-58,-30,55, 
  /* [2][0][][] */ 1,-21,25,-7,68,46,-47,23,-54,41,8,-29,31,-14,21,24,31,-25,-127,-7,-13,-36,-20,17,2,-8,-44,21,-31,-24,-8,72,-23,-35,-2,15,-46,16,-18,-23,62,9,0,37,10,52,1,-13,-79,8,-25,23,-30,44,8,-64,32,17,46,25,-19,-19,-28,48,31,-1,-39,-7,-7,0,-9,-38,22,47,24,63,-60,-3,-30,-39,34,26,46,-25,-7,-49,-19,-51,-14,-32,-20,64,5,-4,88,-43, 
  /* [3][0][][] */ 48,-33,-32,-112,-18,-29,112,-35,34,124,-76,-10,17,-22,-20,55,70,50,-20,23,-55,23,16,12,-51,83,42,-8,-39,-2,-75,61,1,-22,31,-31,4,-47,-21,55,12,16,-17,15,56,-43,6,38,40,-36,32,-50,113,45,36,-6,0,-16,-16,-37,-45,49,75,4,-25,-24,118,-30,-33,-24,-57,24,19,-70,12,-71,12,-61,127,-2,-19,-58,-34,-41,-25,-48,70,70,-55,52,-47,3,1,-90,-13,37, 
  /* [4][0][][] */ -22,84,32,13,-13,9,-36,-19,17,-34,2,-7,28,44,-25,18,-8,-41,-15,-67,26,-30,-63,13,-29,-32,-22,12,-35,127,-56,-16,13,-38,2,-28,65,50,-34,2,19,6,19,-43,-52,-3,57,-17,16,-18,-58,-11,-64,22,50,22,13,63,-23,26,-30,-63,-20,15,58,29,-67,-9,6,0,5,-62,-15,64,60,62,-36,12,-59,37,11,63,29,-60,49,-69,-34,-68,-43,-45,-49,-13,-8,8,35,-34, 
  /* [5][0][][] */ -7,-14,41,-21,-19,-18,-17,-2,39,6,-18,-8,-24,-30,22,-14,-8,-1,-55,-29,-18,13,-17,10,24,-47,64,-23,-5,35,12,79,-5,-77,23,6,-39,-32,-31,6,-47,-5,-26,18,6,14,-76,21,-12,20,55,-9,22,-70,0,13,-27,-58,11,-34,43,22,23,43,-34,10,114,-27,-7,-21,15,19,0,22,35,5,-2,-11,127,41,-18,-13,-28,25,37,64,9,87,4,-35,-11,5,11,-12,-34,16, 
  /* [6][0][][] */ 15,-70,77,23,-29,126,-48,-100,-39,-82,-94,56,1,11,-37,93,1,48,15,-55,-92,-14,-102,-79,6,-55,-6,87,-122,48,-11,-31,36,97,-22,2,-4,-51,22,-27,-70,34,37,-36,24,60,-110,-18,62,14,-98,-120,78,14,-50,-30,31,-34,35,-32,-10,-65,34,-11,52,-92,-81,-71,-121,26,-9,-90,-28,-110,16,-127,90,22,-92,41,-33,80,14,-124,68,-42,-22,2,-76,87,-103,95,52,-47,77,-124, 
  /* [7][0][][] */ -6,-5,-65,62,-20,-4,33,2,-91,1,79,58,8,-58,2,-35,-9,-2,6,-3,-53,-22,-42,-36,62,43,-3,71,6,36,20,22,-48,-127,33,98,-7,22,-36,-4,-4,-11,11,-73,23,61,73,76,-21,38,-42,0,23,-38,37,-49,-7,38,-82,-16,50,13,6,-30,72,-53,91,-9,-58,-30,64,0,-16,-21,-70,-16,22,-44,83,-33,-6,-13,-67,-27,51,16,-71,36,-11,19,12,35,57,-2,89,1, 
  /* [8][0][][] */ -12,-59,1,5,-8,-2,17,-2,-6,-4,44,47,15,31,-46,-8,73,3,12,4,-11,-77,-37,-24,-23,-30,66,10,-14,47,3,-30,-19,1,3,0,-47,-14,23,-30,-3,43,25,-36,14,-18,28,-13,37,-1,49,-2,-4,8,-45,3,-18,106,-60,-6,-13,-60,-62,-8,-89,-30,-25,17,-4,13,39,-23,-29,-127,41,-104,8,12,-62,19,-31,-9,0,61,63,-64,-40,51,-32,83,11,-19,-47,7,0,-55, 
  /* [9][0][][] */ -22,-23,-32,23,7,16,2,42,-43,-1,60,53,-22,55,23,-53,-16,35,-16,-40,-3,41,-8,9,-24,23,8,12,36,-1,13,-12,-12,-23,8,48,-21,-2,21,1,-5,-25,12,5,6,42,7,47,-49,3,-8,31,127,23,-8,7,19,-8,27,23,-35,7,82,15,18,22,64,10,36,-11,-19,24,7,-121,-32,-117,-33,-18,41,2,-12,33,5,-36,43,15,-52,-3,-2,107,43,29,51,30,-9,36, 
  /* [10][0][][] */ 19,46,7,1,-9,15,-38,-16,63,8,-33,24,25,11,3,-60,-35,8,22,-4,25,-8,-23,-28,10,-17,-100,49,-12,58,-1,8,12,22,-20,5,17,6,8,-7,36,-7,63,-49,-31,4,25,28,12,-3,6,-26,-18,-15,1,37,-9,11,-18,-4,-16,-38,-7,6,-9,-18,-101,-26,-47,-19,44,-18,-19,36,32,19,48,-21,-98,9,-20,35,-6,-3,11,6,-74,-127,-28,28,14,29,56,-30,23,35, 
  /* [11][0][][] */ 23,-36,-2,10,-57,30,17,13,73,-19,-20,-38,26,12,16,-14,-27,52,19,-61,7,32,12,-18,32,18,57,5,33,-53,-27,17,13,100,-96,5,17,-10,57,5,-48,51,-9,10,-41,4,-8,-2,44,-21,-29,-10,-18,12,-73,96,-25,4,-8,-35,18,-2,-7,-66,-6,-39,-127,-70,-4,-36,-90,27,46,25,-8,1,30,51,-109,-38,-13,-8,-12,1,-17,-8,52,81,17,-46,11,12,-27,24,83,36, 
  /* [12][0][][] */ 25,27,-39,-25,7,-24,1,29,55,-29,20,-4,3,-14,-8,15,15,-42,-28,13,8,50,2,54,-39,-43,-127,-13,66,-17,22,-4,-11,-70,66,-8,34,-4,-7,22,4,-48,13,29,38,2,30,-7,-69,-5,-40,86,73,-21,35,-66,6,24,-41,-24,9,59,72,10,-6,-16,32,29,101,20,18,27,4,-13,-5,2,-33,-60,45,-56,18,-43,31,-28,6,6,9,-101,-8,30,-31,18,7,59,13,41, 
  /* [13][0][][] */ -13,21,-86,32,36,21,-16,16,24,72,-33,50,-45,-32,74,-60,13,58,66,9,-37,-42,-12,16,41,61,-23,34,16,37,56,-23,-25,63,-8,54,20,-37,-45,-65,-2,-13,24,15,45,62,-23,45,-57,30,-1,-3,-21,-44,59,40,17,-41,-21,-15,20,16,0,-31,7,87,127,47,20,-5,-51,-25,41,65,-89,63,13,-85,125,-41,-22,-41,21,4,33,62,-42,-27,-15,-27,6,59,38,16,72,62, 
  /* [14][0][][] */ -2,55,20,27,-72,-48,14,33,-73,-27,74,5,-76,-11,72,-24,-42,32,-63,23,-30,23,-103,20,-56,1,-62,-122,8,5,23,74,-51,26,12,-20,-22,-71,-16,-36,32,-28,48,-27,-17,45,-73,35,-9,-51,91,27,-16,28,-28,31,-63,35,-5,49,32,74,-9,50,21,-52,6,-62,39,55,75,32,-56,44,12,19,28,-22,43,24,-71,119,6,-127,85,-6,-3,1,-107,-23,-11,-8,-36,5,44,32, 
  /* [15][0][][] */ 69,-32,34,35,46,1,-16,-1,15,31,-58,-16,63,59,-5,-21,-17,3,-82,46,-2,-24,10,30,63,-22,95,26,43,-43,-42,65,59,48,-9,-75,60,64,65,59,93,37,-16,10,-44,-121,33,-41,-32,-21,-16,6,-12,-53,-38,56,-11,10,-12,16,4,-61,-38,28,40,44,-78,41,-18,-32,4,-9,1,-127,-59,-112,-22,28,-127,29,82,-43,50,27,-65,-3,-10,-16,51,91,1,-63,-31,-30,36,-43, 
};
const TfArray<16, float> quant15_scale = { 16, { 0.002887010108679533, 0.0026047807186841965, 0.0025039843749254942, 0.0024975070264190435, 0.0038807932287454605, 0.005885981023311615, 0.0021269475109875202, 0.0029245573095977306, 0.0054148994386196136, 0.0044680293649435043, 0.0044564041309058666, 0.0033950048964470625, 0.0039539127610623837, 0.003285673912614584, 0.0033343508839607239, 0.0030673551373183727, } };
const TfLiteAffineQuantization quant15 = { (TfLiteFloatArray*)&quant15_scale, (TfLiteIntArray*)&g0::quant8_zero, 0 };
const MODEL_SECTION(EI_MODEL_SECTION) ALIGN(16) int32_t tensor_data16[96] = { 9286, -1964, -5234, 4784, -2290, 1004, 885, 701, 3122, -4280, 1433, -3845, 8853, -3052, -1721, -6821, 722, -15, -8080, 245, -1774, -147, -6804, 1299, 15, 10566, -8741, -6064, -1197, -2751, 506, -48, 13216, -565, -1894, -760, -189, 11073, 568, 9305, 842, 5883, -544, 8460, 1012, -1332, 13917, 3569, -4940, -164, -2777, 889, 801, -2243, 1724, 2194, -752, 4091, -148, 1741, 95, 1856, 536, 7588, 10427, 1411, 14100, 8005, 537, -1097, 9452, -1289, 173, 909, -3898, 159, 16947, 9875, 10227, 10739, 14369, -1089, 9373, 9577, -739, -1092, 10369, -6980, 9248, -109, -7498, -1811, 227, 1470, 23067, -1783, };
const TfArray<96, float> quant16_scale = { 96, { 0.00011929850006708875, 0.00029514275956898928, 0.00020032915927004069, 0.00023539749963674694, 0.0002077477693092078, 0.00053473218576982617, 0.0001058388952515088, 0.00020589851192198694, 0.0003404997696634382, 0.00022776081459596753, 0.00029607350006699562, 0.00020098721142858267, 0.0001089638753910549, 0.00018818520766217262, 0.0002525047748349607, 0.00018988903320860118, 0.0002659411693457514, 0.00039958656998351216, 0.00014710261893924326, 0.00033809145679697394, 0.00026416953187435865, 0.00025020859902724624, 8.8647466327529401e-05, 0.00015905078907962888, 0.0032213188242167234, 0.00011444439587648958, 0.00026235473342239857, 0.00013678512186743319, 0.00033499565324746072, 0.00018931548402179033, 0.00016004731878638268, 0.00033189266105182469, 9.29987509152852e-05, 0.00043384739547036588, 0.00012972674448974431, 0.00021027633920311928, 0.00036737302434630692, 0.00012697858619503677, 0.00026603194419294596, 0.00011310325498925522, 0.00055774493375793099, 0.00020681200840044767, 0.00021495361579582095, 0.00012126241199439391, 0.00014269443636294454, 0.00028879989986307919, 0.00012457945558708161, 0.00026906479615718126, 0.00021031970391049981, 0.00043930491665378213, 0.00031512070563621819, 0.00018759204249363393, 0.00014656377607025206, 0.00040107432869262993, 0.00031102809589356184, 0.00029814377194270492, 0.0001465395325794816, 0.00040763113065622747, 0.00044339237501844764, 0.00037800069549120963, 0.00029940396780148149, 0.00036087151966057718, 0.00015705541591159999, 0.00011742833157768473, 0.0002569554781075567, 0.00041597412200644612, 0.00011974440712947398, 0.00016702924040146172, 0.00026325928047299385, 0.00039575205300934613, 0.00011760726192733273, 0.00025716188247315586, 0.00051947357133030891, 0.00019148031424265355, 0.00013807787036057562, 0.00023538060486316681, 7.268806075444445e-05, 0.00018664020171854645, 0.00013627743464894593, 0.00016664550639688969, 9.7952324722427875e-05, 0.0003110175603069365, 0.00010272634972352535, 0.00027205684455111623, 9.9084791145287454e-05, 0.00033349744626320899, 0.0001225685264216736, 0.00025225529680028558, 0.00012102419714210555, 0.00023675995180383325, 0.0001132225661422126, 0.00024391064653173089, 0.00034977123141288757, 0.0001634423533687368, 8.069570321822539e-05, 0.0003265551058575511, } };
const TfLiteAffineQuantization quant16 = { (TfLiteFloatArray*)&quant16_scale, (TfLiteIntArray*)&g0::quant6_zero, 0 };
const MODEL_SECTION(EI_MODEL_SECTION) ALIGN(16) int8_t tensor_data17[1*3*3*96] = { 
  /* [0][0][][] */ -37,-5,1,-32,106,-7,24,-18,-9,-3,-16,-8,-17,7,-4,-8,-19,5,-14,-16,-9,24,21,38,-3,-32,-29,9,21,-4,26,6,4,7,-7,-27,-3,-49,-29,2,-2,1,40,-37,-34,40,-70,-26,-18,13,-14,47,-71,0,23,-18,8,-16,6,-21,-10,-24,-11,-45,-20,-25,-50,-33,-20,30,-12,1,27,2,1,4,-25,21,127,-17,-121,8,-119,-22,-31,-21,5,14,-21,-15,17,-29,-9,26,-21,9, -21,45,40,-59,-30,-1,127,-65,-5,-13,-41,23,-72,5,-85,87,-13,74,65,-35,-6,127,80,112,26,-12,48,79,127,34,127,-31,-127,-15,-93,-29,-24,-65,127,-50,-31,-127,-9,-61,66,-25,-48,-13,38,7,18,127,-104,36,-91,-14,-78,-12,-4,22,-16,-127,-127,-58,-52,-6,-11,-87,-16,20,-69,120,-127,-13,18,-30,-127,-71,-11,-75,-127,7,19,-65,99,72,-84,34,-127,1,32,-9,5,127,-61,-74, -43,7,-5,-15,74,0,30,-34,-24,14,-15,6,11,3,-5,-20,-13,-1,-11,-28,-12,5,25,25,-4,-25,-8,-11,15,6,11,13,6,6,-20,54,-1,-37,-24,16,-7,-8,18,-22,-21,-18,-42,-33,-11,3,-12,29,0,-8,-1,-20,71,-23,9,-26,-11,-14,-56,-1,-29,-38,127,-21,-7,23,-6,11,9,8,10,11,-24,29,-47,-14,-90,0,-127,-19,4,-32,2,-18,-33,-33,9,55,-1,23,-25,11, 
  /* [0][1][][] */ -85,-1,36,-47,48,89,-42,-25,-8,-16,-29,-5,-127,27,22,77,-18,38,85,24,26,-20,126,-35,36,12,62,26,-7,5,-5,-25,-119,-13,70,-17,-9,-127,-46,-127,-22,-5,101,-53,-79,127,-120,-87,51,56,12,-51,-127,67,57,-28,28,-38,38,-12,11,-14,89,-97,-38,8,-32,-66,-15,-2,-127,12,60,127,7,-70,-122,-69,-70,-50,-97,-9,-37,-62,40,25,-109,56,-60,127,85,-87,127,-3,-76,-1, 70,127,127,127,-127,-127,94,-75,127,127,-81,-43,-101,127,-25,127,127,-127,127,127,127,-73,71,-127,-127,-127,127,127,-108,127,-25,127,-76,127,127,-86,127,86,12,-26,127,-21,-127,-126,127,-19,127,127,127,-127,127,-117,106,127,-127,127,-127,127,-127,127,-108,107,98,-127,127,127,-16,127,-119,-127,-19,-127,10,104,127,65,-17,-127,90,-127,50,127,125,127,127,67,-127,127,-78,52,-12,-27,-86,-32,-127,-26, -127,-23,28,-55,20,53,-55,-6,-42,-11,-6,127,-107,21,27,64,-27,46,63,9,12,-27,84,-35,36,-2,37,9,-12,0,18,-18,-81,-28,90,127,-2,-87,-60,-76,-32,-32,30,-59,-65,-60,-109,-114,43,64,-6,-33,122,7,79,-48,103,-35,51,-44,-7,-37,-126,-36,-74,-19,-59,-74,-24,7,-103,-2,33,-96,6,127,-78,-61,-66,-8,-125,-17,-76,-83,2,29,-98,40,-38,-76,127,127,-46,-31,-86,-2, 
  /* [0][2][][] */ -22,-37,-3,-11,40,-3,-2,12,-14,6,28,-11,47,-4,-11,-26,-3,-5,-28,-24,-17,-8,33,-35,4,-22,-12,16,-3,-5,-32,0,33,0,1,-22,-5,-52,-6,-8,-32,-8,30,4,21,15,-86,-4,-28,6,-19,-23,-18,-37,25,-12,11,-25,9,-22,-3,12,10,-22,-46,-32,118,20,25,30,-16,-4,-9,-13,-3,-26,-5,26,-36,-28,-16,0,-92,-20,-9,1,45,-17,-9,-2,-4,-15,-16,-17,-45,0, -24,-52,35,-68,-35,-5,60,127,-59,71,127,-17,-57,14,127,84,-13,-31,88,-55,-30,-28,127,4,17,-23,35,22,-12,2,-92,-47,-54,-28,-97,-8,-83,-76,48,-66,-21,-98,-35,127,30,-16,-67,-7,25,-5,-8,-9,57,25,-55,-37,-47,-55,46,-54,127,20,103,-5,-92,-62,-26,-43,127,34,-46,19,22,-23,29,-22,-19,-37,2,37,-80,-25,-82,-78,49,-127,14,20,-23,-1,41,5,10,-126,-81,127, -27,5,-2,-1,38,-8,3,7,-26,-1,12,38,64,-2,-11,-32,-5,11,-4,-33,-17,-4,26,-21,-2,-21,-12,3,-7,1,-40,0,28,4,0,-2,-8,-76,-15,7,-35,9,-2,-3,16,-3,-77,4,-23,-3,-12,-21,-2,-40,21,-10,64,-17,13,-23,2,13,-22,1,-35,-31,-33,23,23,17,-21,-1,-46,-34,-2,-13,-20,5,98,-12,-27,-5,-80,-9,-11,6,50,11,4,5,-6,15,-3,-23,-35,-1, 
};
const TfArray<96, float> quant17_scale = { 96, { 0.0050701862201094627, 0.012543566524982452, 0.0085139889270067215, 0.010004393756389618, 0.0088292798027396202, 0.022726118564605713, 0.004498152993619442, 0.0087506864219903946, 0.014471240341663361, 0.009679834358394146, 0.01258312352001667, 0.0085419565439224243, 0.0046309647150337696, 0.0079978713765740395, 0.010731453076004982, 0.0080702835693955421, 0.011302500031888485, 0.016982428729534149, 0.0062518613412976265, 0.014368887059390545, 0.011227204464375973, 0.010633865371346474, 0.0037675173953175545, 0.0067596584558486938, 0.13690604269504547, 0.0048638866282999516, 0.011150076054036617, 0.0058133676648139954, 0.014237315393984318, 0.0080459080636501312, 0.00680201081559062, 0.014105437323451042, 0.0039524468593299389, 0.018438514322042465, 0.0055133868008852005, 0.0089367441833019257, 0.015613353811204433, 0.0053965896368026733, 0.011306357569992542, 0.0048068882897496223, 0.023704160004854202, 0.00878951046615839, 0.0091355284675955772, 0.0051536522805690765, 0.006064513698220253, 0.012273995205760002, 0.0052946265786886215, 0.011435253545641899, 0.0089385872706770897, 0.018670458346605301, 0.013392630033195019, 0.0079726614058017731, 0.0062289605848491192, 0.017045658081769943, 0.013218693435192108, 0.012671110220253468, 0.0062279300764203072, 0.017324322834610939, 0.018844176083803177, 0.016065029427409172, 0.012724668718874454, 0.015337038785219193, 0.0066748550161719322, 0.0049907038919627666, 0.01092060748487711, 0.017678899690508842, 0.0050891372375190258, 0.0070987427607178688, 0.011188519187271595, 0.016819462180137634, 0.0049983086064457893, 0.010929379612207413, 0.02207762748003006, 0.0081379134207963943, 0.0058683091774582863, 0.010003675706684589, 0.0030892423819750547, 0.0079322084784507751, 0.005791790783405304, 0.0070824339054524899, 0.0041629737243056297, 0.013218245469033718, 0.0043658697977662086, 0.011562415398657322, 0.004211103543639183, 0.014173640869557858, 0.0052091623656451702, 0.010720849968492985, 0.005143528338521719, 0.010062297806143761, 0.0048119588755071163, 0.010366202332079411, 0.014865277335047722, 0.0069462996907532215, 0.0034295672085136175, 0.013878591358661652, } };
const TfLiteAffineQuantization quant17 = { (TfLiteFloatArray*)&quant17_scale, (TfLiteIntArray*)&g0::quant6_zero, 3 };
const MODEL_SECTION(EI_MODEL_SECTION) ALIGN(16) int32_t tensor_data18[96] = { 915, 5284, 94, 1334, 3381, 9885, -32, 1895, 10770, -753, 15796, 3400, 1483, 395, 2771, 397, 1792, 2933, -401, 8991, 906, 8408, -845, 1230, -8466, 699, 1953, 1130, 4672, 762, 2831, 2967, 1302, 7574, 2626, 2949, 2806, 1956, 3038, 2113, 16444, 1117, 1784, 1019, 2626, 6263, 5066, 7150, 678, -491, 1533, 4345, 1917, -2617, 5772, 203, 2031, 13302, 1238, 1739, 2060, 9115, 2809, -337, 9805, 10933, 1527, 2237, 6277, 4027, 1775, 1065, -2877, 3035, 1541, 2370, 189, 8193, 2858, 4801, 2241, 726, 3464, 7528, -298, 6891, 3985, 1524, -549, 2038, 953, 8626, 2583, 2331, 4402, 3578, };
const TfArray<96, float> quant18_scale = { 96, { 0.00035269669024273753, 0.00014535586524289101, 0.00041285631596110761, 0.00029373870347626507, 0.0001845828810473904, 9.3065660621505231e-05, 0.00030216597951948643, 0.00019034270371776074, 8.0760328273754567e-05, 0.00021779099188279361, 5.5827713367762044e-05, 0.00013859986211173236, 0.00021904756431467831, 0.00051353604067116976, 0.00020412472076714039, 0.00018196678138338029, 0.00033990043448284268, 0.00021580015891231596, 0.00023265305208042264, 0.00010082220251206309, 0.00028573605231940746, 9.1788060672115535e-05, 0.00027060694992542267, 0.00022378422727342695, 8.8452565250918269e-05, 0.00023142858117353171, 0.00026159730623476207, 0.00028728489996865392, 0.00018332160834688693, 0.00032997175003401935, 0.00019363992032594979, 0.00018425835878588259, 0.00029339807224459946, 0.00011118713155156001, 0.00019988523854408413, 0.00021309904695954174, 0.00020859146025031805, 0.00022674263163935393, 0.00015358842210844159, 0.00020708341617137194, 5.9170524764340371e-05, 0.00024555192794650793, 0.00021444207231979817, 0.00017836438200902194, 0.00013629072054754943, 0.00012992681877221912, 0.00014569639461115003, 0.00011142355651827529, 0.00038887612754479051, 0.00036398525116965175, 0.00027477717958390713, 0.00016283846343867481, 0.00025722026475705206, 0.00014568777987733483, 0.00013222283450886607, 0.00039100987487472594, 0.00015653006266802549, 6.8210938479751348e-05, 0.0001659719564486295, 0.00016062313807196915, 0.0002175231056753546, 9.8417185654398054e-05, 0.00022109557176008821, 0.00026896724011749029, 9.9492172012105584e-05, 8.0745841842144728e-05, 0.0002721572236623615, 0.00025764401652850211, 0.00012683437671512365, 0.00012895408144686371, 0.00028188028954900801, 0.00020709713862743229, 0.00020025770936626941, 0.00020968433818779886, 0.00025482330238446593, 0.00025432271650061011, 0.00031878278241492808, 0.00010236750676995143, 0.0002113055088557303, 0.00017187677440233529, 0.0001950533187482506, 0.00024101698363665491, 0.00013617200602311641, 0.00012284304830245674, 0.00013688101898878813, 0.00010513338202144951, 0.00016864329518284649, 0.00028464780189096928, 0.00028236617799848318, 0.00027981630410067737, 0.0002161157171940431, 9.8460332083050162e-05, 0.00020223704632371664, 0.0001725827605696395, 0.00013283641601447016, 0.00017391942674294114, } };
const TfLiteAffineQuantization quant18 = { (TfLiteFloatArray*)&quant18_scale, (TfLiteIntArray*)&g0::quant6_zero, 0 };
const MODEL_SECTION(EI_MODEL_SECTION) ALIGN(16) int8_t tensor_data19[96*1*1*16] = { 
  /* [0][0][][] */ 51,6,7,67,-127,-28,94,58,66,97,-27,52,12,0,37,83, 
  /* [1][0][][] */ -9,23,-79,3,127,103,3,-2,-18,17,-58,23,-39,78,-52,-39, 
  /* [2][0][][] */ -48,59,89,-11,59,80,0,43,33,-10,45,-9,61,-127,-5,16, 
  /* [3][0][][] */ 127,-26,14,4,51,42,-12,11,45,40,-49,-15,-39,51,-42,53, 
  /* [4][0][][] */ -69,-12,-1,26,-127,-5,-74,-30,-19,28,1,-60,-32,41,-38,115, 
  /* [5][0][][] */ -86,13,39,15,127,23,1,4,-37,41,-30,-2,-65,49,-92,-45, 
  /* [6][0][][] */ -127,21,-46,41,-4,-71,85,14,8,-29,-53,34,18,10,-49,10, 
  /* [7][0][][] */ -15,101,47,-110,85,60,127,18,56,1,-5,57,88,27,-43,9, 
  /* [8][0][][] */ -49,-27,-82,53,-65,91,-43,-69,19,-54,99,45,127,60,-104,19, 
  /* [9][0][][] */ -30,-127,-23,72,-45,-63,-20,65,45,40,12,67,-72,15,-8,-30, 
  /* [10][0][][] */ -48,-64,-124,73,-103,117,42,-77,9,-71,73,-27,32,127,-94,92, 
  /* [11][0][][] */ -47,-104,-43,30,-18,96,20,-4,24,0,46,-92,0,106,-94,127, 
  /* [12][0][][] */ -20,-90,-76,100,-96,-127,19,61,85,68,-42,94,-4,-70,-27,-21, 
  /* [13][0][][] */ -70,-21,-33,-9,-18,-2,30,17,-21,127,-11,-22,34,34,17,-10, 
  /* [14][0][][] */ -127,-26,-49,-49,-10,91,-30,-106,110,-50,59,-2,86,-59,-107,-92, 
  /* [15][0][][] */ 0,-127,97,-62,-61,-41,8,62,15,-52,-89,-32,84,-40,-23,-46, 
  /* [16][0][][] */ -28,-28,19,-44,27,28,-15,-19,56,-127,40,-17,-11,2,-69,-83, 
  /* [17][0][][] */ -27,29,31,-67,12,-3,-34,9,91,-69,35,74,117,-93,-22,-127, 
  /* [18][0][][] */ 67,8,-33,-107,9,-13,127,-63,28,55,-14,45,0,77,-13,-105, 
  /* [19][0][][] */ -31,-32,-35,-62,-118,46,-14,-4,33,-51,38,-127,-16,-25,-29,-4, 
  /* [20][0][][] */ 31,84,81,-94,73,-2,-43,89,-116,-127,32,-98,-31,118,-26,-20, 
  /* [21][0][][] */ 14,-105,-127,12,126,35,103,85,-107,-89,-46,7,125,-91,-37,39, 
  /* [22][0][][] */ 48,-12,72,-18,-3,6,64,30,15,127,39,36,-10,11,111,3, 
  /* [23][0][][] */ -127,-65,-13,56,83,46,22,3,4,16,-11,-96,-3,85,57,118, 
  /* [24][0][][] */ 12,-5,39,35,10,-97,19,-72,20,127,-124,71,-18,-74,78,-76, 
  /* [25][0][][] */ 113,-62,90,111,29,-5,-29,43,-127,81,70,-40,-22,34,79,-7, 
  /* [26][0][][] */ -18,24,13,39,-52,109,-21,35,-55,-30,-80,35,3,18,44,-127, 
  /* [27][0][][] */ 34,-7,-9,-47,-48,12,-84,1,-103,-22,-68,-48,-67,51,-28,127, 
  /* [28][0][][] */ -76,17,23,-9,28,-7,-127,2,2,-39,-9,-18,18,-48,-79,-32, 
  /* [29][0][][] */ -19,-117,-25,91,-41,9,127,-1,77,53,-107,56,28,-17,-50,70, 
  /* [30][0][][] */ 47,-62,-69,20,-127,33,58,-33,22,-10,5,-26,-21,65,-9,78, 
  /* [31][0][][] */ -127,-17,6,83,-39,5,-45,8,-25,-57,9,-20,-21,-54,-17,84, 
  /* [32][0][][] */ -121,-88,-103,6,-89,-45,13,-28,127,54,-65,-82,46,46,24,-21, 
  /* [33][0][][] */ -16,5,-103,46,-121,-105,45,-5,-127,24,-50,-45,-35,106,74,80, 
  /* [34][0][][] */ 44,56,12,49,-78,-50,32,6,10,-127,-24,42,-17,-3,42,91, 
  /* [35][0][][] */ 42,-4,-78,-11,-127,15,83,-23,31,41,-12,-2,19,70,42,74, 
  /* [36][0][][] */ -2,-5,-47,58,127,-23,36,66,-73,21,-79,-72,23,-17,4,24, 
  /* [37][0][][] */ -127,52,-3,-72,44,-99,-46,-32,-10,-27,-22,49,57,-87,20,-125, 
  /* [38][0][][] */ 35,118,29,-74,-114,-52,-127,-56,-52,-89,57,82,-69,-112,72,8, 
  /* [39][0][][] */ -7,-49,-3,59,5,68,82,-41,-30,38,22,-24,-17,127,53,117, 
  /* [40][0][][] */ 116,43,90,97,-51,-61,-9,28,-71,74,-19,-21,-37,-35,127,-7, 
  /* [41][0][][] */ -14,-6,13,57,-85,115,12,46,-50,32,-109,6,22,31,44,-127, 
  /* [42][0][][] */ -1,-102,23,-14,127,25,65,19,-34,-109,-89,-21,-14,-4,-2,48, 
  /* [43][0][][] */ -26,-84,-31,16,127,27,-15,76,-54,-50,-126,-91,113,-6,-68,43, 
  /* [44][0][][] */ -29,-76,-88,-88,35,87,81,11,-34,-127,-66,55,-46,66,27,96, 
  /* [45][0][][] */ -7,-61,-66,-3,-127,59,-28,-51,54,-48,30,-50,-5,12,-38,52, 
  /* [46][0][][] */ 41,-60,0,-7,84,-67,-12,73,8,-15,20,53,-29,-65,49,-127, 
  /* [47][0][][] */ -66,-34,-4,80,-12,-6,26,48,-5,127,75,84,-48,78,5,86, 
  /* [48][0][][] */ 39,-11,-84,-92,33,-74,11,57,41,-81,-2,24,-67,10,-41,-127, 
  /* [49][0][][] */ 50,28,19,26,-15,-30,39,44,-34,127,-44,29,-38,-29,66,70, 
  /* [50][0][][] */ 9,-3,13,12,-127,-17,-9,-52,59,22,22,45,-21,-61,12,-6, 
  /* [51][0][][] */ 18,7,-7,-127,-14,105,52,-65,15,13,31,-59,70,88,-33,15, 
  /* [52][0][][] */ 21,-18,0,-88,76,-107,0,-40,37,-4,127,-55,34,10,-38,92, 
  /* [53][0][][] */ -46,-68,54,-19,-33,-127,16,-110,2,97,-106,81,-32,-26,29,-94, 
  /* [54][0][][] */ 45,59,35,-21,-127,-44,-84,-86,-16,4,54,79,-67,-45,64,19, 
  /* [55][0][][] */ 12,11,-32,66,-32,19,32,-17,7,127,20,55,-5,3,1,41, 
  /* [56][0][][] */ 36,-127,-80,79,-97,41,-1,58,126,-6,65,56,-49,-15,61,110, 
  /* [57][0][][] */ 66,31,95,-93,92,-4,-11,-4,118,-43,12,127,60,-83,115,-76, 
  /* [58][0][][] */ 99,-55,23,-70,47,11,-16,127,70,114,-17,59,50,7,90,-18, 
  /* [59][0][][] */ -46,36,36,-54,10,-85,-7,6,12,30,-127,-100,-122,-61,73,-21, 
  /* [60][0][][] */ 34,-36,24,16,17,-14,2,-52,30,127,-14,59,-2,-32,-23,-31, 
  /* [61][0][][] */ 66,56,16,-26,-96,-127,-17,-64,-63,-21,-28,9,-66,-54,88,84, 
  /* [62][0][][] */ -28,86,-45,38,-48,127,-49,26,-59,12,-34,35,-32,38,58,-87, 
  /* [63][0][][] */ 40,-8,-79,-127,-9,-51,90,-20,-7,-94,-37,24,-40,83,31,-35, 
  /* [64][0][][] */ -38,16,12,-19,59,-71,24,87,-127,-11,-70,-31,-44,82,64,61, 
  /* [65][0][][] */ -80,-7,-35,-26,67,33,-52,-75,-127,-53,12,-25,-127,97,-53,48, 
  /* [66][0][][] */ -21,56,-9,37,-48,127,-24,27,-70,19,-33,50,-30,54,56,-82, 
  /* [67][0][][] */ 16,-28,-39,-26,6,-89,62,-98,-8,29,13,119,-55,-37,-22,-127, 
  /* [68][0][][] */ 12,-127,-30,83,-9,-4,22,96,47,44,64,21,-84,34,-17,-14, 
  /* [69][0][][] */ 21,66,84,-91,53,-7,-44,86,38,107,48,74,81,-91,40,-127, 
  /* [70][0][][] */ 36,25,41,-42,85,4,-88,-43,-127,-92,4,52,-36,66,-93,0, 
  /* [71][0][][] */ -27,-57,23,-37,75,-4,47,24,-79,75,-127,-54,19,97,-32,54, 
  /* [72][0][][] */ 9,15,61,12,-65,-28,-108,-67,-12,60,-26,62,27,124,-127,0, 
  /* [73][0][][] */ -5,-40,-23,-44,37,-105,33,-46,68,83,105,-16,24,-11,-74,127, 
  /* [74][0][][] */ 0,0,-22,78,-81,-9,90,29,78,60,31,119,127,22,-56,11, 
  /* [75][0][][] */ -32,37,-26,28,-52,127,-9,21,-34,20,-31,33,-17,52,26,-57, 
  /* [76][0][][] */ -63,95,-47,40,-105,-3,-16,20,56,53,-44,-33,56,-54,-127,34, 
  /* [77][0][][] */ 120,96,-101,127,84,85,66,36,55,22,84,-57,81,29,55,12, 
  /* [78][0][][] */ 19,-43,2,-56,70,-127,34,-58,57,48,124,-35,4,-16,-39,120, 
  /* [79][0][][] */ -37,65,-3,25,3,-39,-35,-9,-127,-5,55,1,114,40,-87,-46, 
  /* [80][0][][] */ -68,26,70,8,77,48,-5,-127,-65,58,-61,-47,-7,-91,24,58, 
  /* [81][0][][] */ 86,77,-21,2,39,-27,77,105,-101,127,-68,-46,-47,19,107,116, 
  /* [82][0][][] */ 65,99,-21,-55,-3,-64,99,-87,35,26,-73,78,127,-21,81,-58, 
  /* [83][0][][] */ 1,-26,14,37,9,35,-27,-111,64,-40,108,18,48,-67,-64,-127, 
  /* [84][0][][] */ -127,-83,-49,-25,-14,104,105,-3,91,70,113,99,62,90,-85,6, 
  /* [85][0][][] */ 120,9,96,-60,66,-21,-30,83,10,118,-52,12,-36,52,127,16, 
  /* [86][0][][] */ -76,79,-32,5,43,102,15,8,109,52,127,-35,-22,60,-20,-32, 
  /* [87][0][][] */ 14,-58,25,-41,44,-127,28,-31,47,-10,61,-35,35,-43,-39,66, 
  /* [88][0][][] */ -94,70,34,2,124,-18,47,17,-75,-85,127,-84,91,126,107,-126, 
  /* [89][0][][] */ -21,35,-13,25,-37,127,-15,26,-43,11,-44,11,-10,59,35,-87, 
  /* [90][0][][] */ 48,-85,18,23,127,-6,56,40,-16,-107,-117,-21,-14,-6,-56,39, 
  /* [91][0][][] */ -12,80,-16,-38,3,-73,-102,26,-82,31,-120,-127,-116,-85,-19,-1, 
  /* [92][0][][] */ 55,50,51,29,-127,-77,23,12,-24,22,-19,-30,-29,-76,27,6, 
  /* [93][0][][] */ -1,-127,-105,74,-35,-60,-23,105,100,72,4,62,-66,72,-12,-31, 
  /* [94][0][][] */ 96,15,125,-27,13,-39,7,43,28,90,12,77,15,1,127,-16, 
  /* [95][0][][] */ -63,-43,-35,-22,127,-2,51,63,-43,-13,-90,-52,20,16,-73,39, 
};
const TfArray<96, float> quant19_scale = { 96, { 0.0049351300112903118, 0.002033900935202837, 0.0057769175618886948, 0.004110157024115324, 0.0025827873032540083, 0.001302227028645575, 0.0042280759662389755, 0.0026633820962160826, 0.0011300438782200217, 0.0030474539380520582, 0.0007811727118678391, 0.0019393671536818147, 0.0030650366097688675, 0.0071856849826872349, 0.0028562278021126986, 0.0025461814366281033, 0.0047560776583850384, 0.003019596915692091, 0.0032554122153669596, 0.0014107609167695045, 0.003998179454356432, 0.0012843500589951873, 0.003786484245210886, 0.0031313146464526653, 0.0012376779923215508, 0.0032382786739617586, 0.0036604162305593491, 0.0040198517963290215, 0.0025651389732956886, 0.0046171499416232109, 0.0027095184195786715, 0.0025782464072108269, 0.004105390515178442, 0.0015557927545160055, 0.0027969065122306347, 0.0029818015173077583, 0.0029187288600951433, 0.0031727103050798178, 0.0021490955259650946, 0.0028976274188607931, 0.00082794722402468324, 0.0034359004348516464, 0.0030005939770489931, 0.0024957745335996151, 0.0019070563139393926, 0.00181800895370543, 0.0020386658143252134, 0.0015591009287163615, 0.0054413732141256332, 0.0050930860452353954, 0.0038448367267847061, 0.002278527244925499, 0.0035991703625768423, 0.0020385452080518007, 0.0018501360900700092, 0.0054712295532226562, 0.0021902564913034439, 0.0009544458007439971, 0.0023223727475851774, 0.0022475291043519974, 0.0030437053646892309, 0.0013771085068583488, 0.0030936934053897858, 0.0037635406479239464, 0.0013921502977609634, 0.001129841199144721, 0.0038081766106188297, 0.0036050996277481318, 0.0017747378442436457, 0.0018043979071080685, 0.00394422747194767, 0.0028978195041418076, 0.0028021184261888266, 0.0029340209439396858, 0.0035656306426972151, 0.0035586261656135321, 0.0044605876319110394, 0.0014323836658149958, 0.0029567054007202387, 0.0024049964267760515, 0.0027292955201119184, 0.0033724450040608644, 0.001905395183712244, 0.0017188888741657138, 0.0019153160974383354, 0.0014710853574797511, 0.0023597516119480133, 0.0039829518646001816, 0.003951026126742363, 0.0039153466932475567, 0.0030240125488489866, 0.0013777122367173433, 0.0028298143297433853, 0.0024148749653249979, 0.0018587217200547457, 0.0024335782509297132, } };
const TfLiteAffineQuantization quant19 = { (TfLiteFloatArray*)&quant19_scale, (TfLiteIntArray*)&g0::quant6_zero, 0 };
const MODEL_SECTION(EI_MODEL_SECTION) ALIGN(16) int32_t tensor_data20[16] = { -4209, 10359, -20801, 1416, 12785, -15221, -38586, -9572, -6227, 6589, -16097, -13262, 5961, -9374, -2663, -2309, };
const TfArray<16, float> quant20_scale = { 16, { 0.00015632226131856441, 0.00017421301163267344, 0.00015334991621784866, 0.00018257074407301843, 0.00011421815725043416, 0.00015937189164105803, 0.00010785318590933457, 0.00013693525397684425, 9.9112476164009422e-05, 0.00010893095168285072, 0.0001535107585368678, 0.00015076964336913079, 0.0001232075592270121, 8.9023036707658321e-05, 0.00013216155639383942, 0.00012992489791940898, } };
const TfLiteAffineQuantization quant20 = { (TfLiteFloatArray*)&quant20_scale, (TfLiteIntArray*)&g0::quant8_zero, 0 };
const MODEL_SECTION(EI_MODEL_SECTION) ALIGN(16) int8_t tensor_data21[16*1*1*48] = { 
  /* [0][0][][] */ 31,32,21,-38,66,70,-42,53,-10,114,7,45,-33,34,-12,50,37,88,45,-70,-73,84,-9,52,67,45,38,56,-48,-51,0,92,-26,6,-73,60,55,-127,-38,12,16,-30,58,-2,-14,-53,-68,-16, 
  /* [1][0][][] */ -48,-2,-79,-47,12,92,-52,17,-8,-37,-47,33,64,-23,-25,-22,-29,-34,-5,17,-69,50,-104,-48,-49,-38,53,70,-26,-31,40,-38,16,-62,-36,58,16,-62,127,-34,-20,35,-42,-12,35,57,27,24, 
  /* [2][0][][] */ -2,10,57,-31,-23,-87,16,26,101,80,-67,15,112,-48,127,78,-72,-18,-26,38,87,-86,-30,-100,7,-37,35,-77,47,52,-47,8,32,-24,64,39,-72,18,4,-25,32,26,66,-20,20,-94,103,-55, 
  /* [3][0][][] */ 43,-3,-21,-30,28,107,21,-20,47,-50,25,-19,-47,4,14,45,-38,-62,35,-126,-12,4,-31,-19,-36,90,127,62,-13,-41,31,42,63,-33,91,38,-40,-54,-2,36,27,12,-18,4,20,21,-14,-21, 
  /* [4][0][][] */ 108,-6,12,-55,94,85,46,10,69,-21,-106,35,48,-28,19,-12,-95,-126,-32,-97,-26,28,-44,-40,-79,127,-99,124,-60,-56,31,84,48,-58,12,-28,-6,13,-32,27,-51,-10,-7,59,-46,111,-34,-48, 
  /* [5][0][][] */ -3,-1,-58,9,-17,55,16,-23,60,55,39,90,50,-21,30,-7,-43,127,-19,39,13,-4,-65,-19,32,0,-67,-39,-14,32,14,-20,-39,6,40,11,-50,9,-81,5,88,-18,30,44,-12,5,-35,34, 
  /* [6][0][][] */ 58,17,13,70,6,-27,101,-48,-2,65,127,95,36,50,-49,59,39,-44,-80,82,51,-67,-36,62,-88,81,86,-6,109,42,-26,-3,89,-55,-112,-14,94,28,2,2,8,53,56,-33,68,120,38,-11, 
  /* [7][0][][] */ -95,-8,-21,24,-61,-55,28,54,86,115,-56,-78,-98,14,-12,-11,-81,105,4,117,-54,45,27,39,-17,-99,-34,-81,32,39,-4,12,-18,11,15,-17,6,-63,127,12,8,44,28,-10,54,77,-34,-6, 
  /* [8][0][][] */ -15,-91,50,-60,57,-62,69,-41,-30,-114,35,14,-38,1,26,29,3,8,-45,104,6,38,-21,29,70,-8,-55,-38,-127,-23,-54,-115,8,-67,0,86,-11,33,111,18,14,-2,67,114,-7,-70,-41,83, 
  /* [9][0][][] */ 25,-35,23,-65,34,75,-40,43,23,-37,-32,-13,22,-49,107,-9,12,-107,38,42,-70,43,49,-38,-17,-72,-17,71,53,69,-35,-32,-41,27,-12,127,-20,-41,-56,-21,-23,-1,30,98,49,73,-64,20, 
  /* [10][0][][] */ -16,15,-25,-5,21,28,-61,-41,45,40,64,-5,-32,-10,44,-50,-55,127,1,46,5,-13,18,32,-45,42,2,92,37,8,-31,-7,66,7,-4,23,-11,-44,-33,18,-81,0,23,-18,17,46,33,29, 
  /* [11][0][][] */ -32,47,-21,38,27,57,2,9,17,15,-127,-72,71,21,-9,-48,-2,29,-39,-49,-9,-8,107,8,46,12,-18,34,-3,28,-7,52,28,-3,-47,1,41,84,103,19,33,-29,61,-2,-55,-17,86,3, 
  /* [12][0][][] */ -65,-4,37,18,-58,-58,6,1,-33,-31,-127,13,67,-98,22,36,47,101,80,-121,-33,48,-42,-80,4,-14,41,-32,4,13,-20,82,71,74,36,-29,-57,-32,29,3,-29,19,62,-2,39,-13,-42,-30, 
  /* [13][0][][] */ -46,-121,-43,-104,13,24,61,11,-116,23,122,-63,55,41,127,12,119,24,-7,-100,71,-74,110,-1,-73,3,-28,20,-43,-96,-100,7,43,-26,-71,61,36,-59,73,-79,-10,48,61,45,50,-25,97,-71, 
  /* [14][0][][] */ 68,17,-50,1,-41,12,-88,-27,-26,55,50,42,-17,-62,16,-42,47,-116,24,16,82,-54,23,-2,-6,125,-80,-1,-58,-30,-93,-1,127,40,83,-15,-76,9,-26,61,-11,-50,104,-24,-59,-47,-60,59, 
  /* [15][0][][] */ -61,14,41,18,97,6,1,34,23,74,-20,50,54,-10,-32,-17,10,39,0,-38,24,-38,-44,-50,49,-67,-39,66,-32,4,16,6,-62,1,127,-5,-85,15,55,-14,-44,-22,20,-1,-36,-33,-6,6, 
};
const TfArray<4, int> tensor_dimension21 = { 4, { 16,1,1,48 } };
const TfArray<16, float> quant21_scale = { 16, { 0.0066436957567930222, 0.0074040526524186134, 0.0065173711627721786, 0.0077592562884092331, 0.0048542716540396214, 0.0067733051255345345, 0.0045837601646780968, 0.005819748155772686, 0.0042122802697122097, 0.0046295654028654099, 0.0065242070704698563, 0.0064077097922563553, 0.0052363211289048195, 0.0037834791000932455, 0.0056168660521507263, 0.005521808285266161, } };
const TfLiteAffineQuantization quant21 = { (TfLiteFloatArray*)&quant21_scale, (TfLiteIntArray*)&g0::quant8_zero, 0 };
const MODEL_SECTION(EI_MODEL_SECTION) ALIGN(16) int32_t tensor_data22[48] = { 13855, -643, 20780, 70, 16542, -1693, 33078, 691, 10470, 33694, 3643, 22271, -471, 11259, 33939, 23761, 992, -228, 5290, 47813, 552, 18932, 2217, 18686, 15487, 29957, -2938, -1464, -2105, 11970, 19126, -105, -784, 1672, 2667, 16276, 8740, 29318, 4888, 15965, 24768, 211, 1050, 15553, 26, 5241, 38071, 24468, };
const TfArray<1, int> tensor_dimension22 = { 1, { 48 } };
const TfArray<48, float> quant22_scale = { 48, { 7.9634570283815265e-05, 0.00012970138050150126, 5.6626395235070959e-05, 0.00016122359375003725, 0.00010816369467647746, 7.8167875471990556e-05, 6.5029016695916653e-05, 0.00033102743327617645, 0.00010083760571433231, 6.1409722547978163e-05, 6.1282335082069039e-05, 9.7811171144712716e-05, 8.5405255958903581e-05, 0.00012248977145645767, 4.9400096031604335e-05, 7.0726382546126842e-05, 9.6852134447544813e-05, 6.9924375566188246e-05, 0.0001630155456950888, 4.6727633161935955e-05, 6.5607418946456164e-05, 6.0529793699970469e-05, 8.7593987700529397e-05, 0.0001255467941518873, 5.1624345360323787e-05, 8.6002321040723473e-05, 9.0515917690936476e-05, 4.314854959375225e-05, 0.00024645478697493672, 0.00012379453983157873, 8.1663747550919652e-05, 0.00025704744621179998, 0.00014568064943887293, 0.00017235589621122926, 7.6100033766124398e-05, 7.6463496952783316e-05, 8.4687097114510834e-05, 6.6365311795379966e-05, 7.2846632974687964e-05, 0.00010836994624696672, 5.6316901464015245e-05, 0.00017549733456689864, 0.00025285434094257653, 8.1791513366624713e-05, 0.00014919412205927074, 4.850763434660621e-05, 5.6735898397164419e-05, 6.5670938056427985e-05, } };
const TfArray<48, int> quant22_zero = { 48, { 0,0,0,0,0,0,0,0,0,0,0,0,0,0,0,0,0,0,0,0,0,0,0,0,0,0,0,0,0,0,0,0,0,0,0,0,0,0,0,0,0,0,0,0,0,0,0,0 } };
const TfLiteAffineQuantization quant22 = { (TfLiteFloatArray*)&quant22_scale, (TfLiteIntArray*)&quant22_zero, 0 };
const MODEL_SECTION(EI_MODEL_SECTION) ALIGN(16) int8_t tensor_data23[1*3*3*48] = { 
  /* [0][0][][] */ -99,60,-127,104,-84,67,-56,78,-85,-71,65,-47,58,-88,-39,-48,76,78,80,-107,99,-112,70,-89,-91,-61,58,116,-103,-35,-74,80,70,-95,66,-111,-82,-116,88,-33,-3,-89,111,-120,103,72,-92,-52, -116,87,-65,117,-66,125,-50,97,-125,-100,99,-68,94,-109,-61,-77,107,109,127,-127,109,-116,89,-127,-102,-91,79,121,29,-70,-94,100,102,-127,94,-122,-101,-121,113,-69,-82,102,124,-96,-39,106,-102,-80, -54,40,6,24,-19,72,-16,30,-52,-36,40,-23,47,-49,-15,-8,49,46,60,-34,29,-64,34,-54,-82,-41,25,25,98,-18,-47,40,30,-84,34,-34,-24,-32,49,-45,-93,-23,23,-27,-68,59,-30,-63, 
  /* [0][1][][] */ -100,93,-86,127,-76,122,-126,90,-99,-93,83,-90,82,-106,-89,-95,101,91,-54,-98,124,-127,101,-76,-116,-85,89,111,-127,-74,-101,83,102,24,99,-127,-110,-127,100,-76,-98,-107,118,-127,127,77,-110,-96, -127,127,-111,123,-127,127,-127,127,-127,-127,127,-127,127,-127,-127,-127,127,127,-59,-114,127,-115,127,-122,-127,-127,127,127,17,-127,-127,127,127,35,127,-120,-127,-118,127,-127,-127,127,127,-109,-58,127,-127,-127, -68,72,-79,38,-63,29,-55,41,-47,-28,56,-49,62,-54,-50,-13,68,57,-48,-31,40,-59,45,-63,-122,-50,47,54,109,-55,-55,49,41,6,47,-51,-30,-22,60,-59,-58,-53,40,-46,-87,69,-13,-83, 
